6.437359e+05 1.286474e+06
-1.242544e+00 -1.644362e-01
8.924639e-01 -1.248880e+00
2.559856e+06 5.115770e+06
2.766012e+04 -7.372268e+03
6.192603e+06 -4.192353e+06
4.802733e-01 -1.226929e+00
-1.127696e+04 9.892326e+03
2.786311e+06 3.278137e+06
1.710336e+07 2.012237e+07
3.941349e+06 -2.668268e+06
-5.756278e-01 1.996114e-01
1.794468e+05 -1.214829e+05
1.182093e+06 -8.002694e+05
6.088740e+06 -4.122037e+06
-1.398991e-01 1.259819e+00
1.941014e+06 2.283637e+06
4.701256e+06 5.531101e+06
2.188867e+06 -1.481850e+06
4.198245e+06 4.939299e+06
-7.302394e-01 7.167216e-03
1.092831e+00 -2.302394e+00
7.458374e+06 -5.049273e+06
4.678390e+06 -3.167244e+06
5.441448e+05 1.087449e+06
6.260175e+06 -4.238098e+06
1.238623e+00 -4.422490e-01
-1.256197e+00 3.186172e-01
8.211492e+06 9.660946e+06
1.127469e+07 -7.632890e+06
3.062317e+06 -2.073169e+06
-1.018005e+00 1.429990e-01
3.208078e+06 6.411217e+06
1.073535e+07 -7.267763e+06
1.666497e+05 -1.128218e+05
-5.579559e-01 8.459568e-01
-1.311119e-01 3.724183e-02
9.202920e+05 -6.230306e+05
3.163527e+06 -2.141688e+06
8.983540e+06 1.056927e+07
6.127431e+06 -4.148233e+06
1.688255e+00 1.679136e-01
-1.007132e+00 -8.601459e-01
6.428768e+06 -4.352235e+06
1.457606e+07 -9.867900e+06
5.665876e+06 -3.835763e+06
3.087250e+06 -2.090051e+06
1.382479e+06 -9.359290e+05
1.015958e+00 -8.716819e-01
2.383728e+05 2.804506e+05
5.271168e+06 -3.568548e+06
4.960317e+06 -3.358101e+06
5.356162e+05 -3.626106e+05
1.056002e+06 -7.149058e+05
-8.332458e-01 -8.014944e-01
3.454886e+06 -2.338938e+06
-3.071861e-01 8.720279e-02
4.442245e+06 -3.007373e+06
8.653691e+06 -5.858492e+06
6.390127e-01 1.076007e+00
2.752507e+06 3.238362e+06
4.310521e+06 -2.918195e+06
9.621017e+06 -6.513367e+06
3.409792e+06 -2.308407e+06
1.042199e+05 1.081204e+05
2.143596e+06 -1.451201e+06
9.074431e+06 -6.143332e+06
2.963395e+06 3.486481e+06
7.086086e+05 -4.797238e+05
6.345548e-01 -1.214351e+00
6.735344e+06 -4.559784e+06
9.715729e+06 -6.577487e+06
1.007823e+07 -6.822895e+06
1.592387e+04 1.652065e+04
-6.696485e+03 5.874327e+03
6.150602e+06 -4.163920e+06
2.561933e+06 -1.734413e+06
4.586081e+06 -3.104746e+06
9.818498e+05 -6.647065e+05
1.116650e+07 -7.559651e+06
4.082449e+05 4.803063e+05
9.397309e+05 1.878015e+06
1.138870e+05 2.275983e+05
5.119496e+06 -3.465866e+06
6.048010e+06 -4.094465e+06
-1.710859e+03 -9.389689e+02
5.032948e+06 -3.407276e+06
2.208346e+06 -1.495035e+06
-3.299065e-02 2.175590e-01
5.695706e-01 9.468042e-01
2.094251e-01 -1.192832e+00
-7.474104e-01 9.822054e-01
1.849471e+06 -1.252080e+06
4.429230e+05 5.211059e+05
6.871318e+04 7.128525e+04
2.446320e+06 2.878135e+06
4.348416e+04 -2.944070e+04
2.128359e+00 1.590220e+00
1.447217e+05 1.702705e+05
8.114634e+06 -5.493556e+06
