-1.012507e+00
-1.682680e+00
3.015581e-01
-1.058199e+00
2.939586e-01
-5.082867e-01
2.212447e-01
-6.368425e-01
6.644687e-02
-1.376635e+00
-1.140661e+00
-4.767681e-01
1.274779e-01
-9.383635e-01
2.982900e+00
3.129320e-01
-5.254419e-01
2.938741e-01
-2.241342e+00
-6.675231e-01
-5.567154e-01
6.405947e-01
-2.961494e-01
-9.024230e-01
-1.153458e+00
-3.867382e-01
-1.210147e-01
-4.954607e-01
-1.791147e+00
1.663915e+00
4.478982e-01
-8.617728e-01
1.793297e-02
-3.185622e-01
9.104583e-01
1.153720e+00
1.672408e-01
1.079451e+00
-3.968979e-01
-3.517662e-01
6.877556e-01
-2.478863e+00
-2.051921e-01
-3.458255e-01
-8.314982e-01
-9.197693e-01
-1.281870e-01
-2.014860e+00
2.430800e+00
-1.625816e+00
-2.941026e-01
-4.081902e-01
-2.009832e+00
9.434801e-02
-3.375716e-01
9.714420e-02
-1.301629e+00
7.021784e-01
-7.916771e-01
3.194764e-01
2.054069e+00
-8.592276e-01
-1.100458e+00
-7.728622e-01
3.393426e-01
1.838427e-01
1.305026e+00
-4.657026e-01
-6.154905e-02
2.544503e+00
-1.947038e+00
9.239868e-01
-7.286886e-01
-8.501101e-01
-3.619250e-01
-2.776833e-02
-5.033532e-02
3.101662e-01
4.021629e-01
1.669854e+00
5.869970e-01
-2.534964e-02
-3.850744e-01
3.463814e-01
2.158568e+00
-1.068611e+00
-5.176289e-01
9.868580e-01
-3.503301e-01
5.726932e-02
3.214021e-01
-8.070494e-01
4.601549e-01
-5.320346e-02
1.082890e+00
-1.400384e-02
-8.635855e-01
7.431464e-01
-6.386291e-01
4.360258e-01
-8.167567e-01
6.020523e-01
-4.593807e-01
-4.601211e-01
5.796151e-01
9.492830e-01
-3.015941e-01
1.922332e-01
1.671091e+00
-4.253899e-02
-2.643079e+00
1.657377e+00
2.773349e-01
6.154862e-02
-1.177698e+00
1.170478e+00
3.946691e-02
-1.113006e+00
2.281169e-01
-7.712505e-01
-7.272198e-01
1.363038e+00
-1.186358e+00
-9.122366e-01
-1.756079e-01
-1.476791e+00
3.854681e-01
2.921071e-01
8.208911e-01
1.789789e+00
7.526438e-01
-9.020772e-02
-1.969879e+00
-1.322014e+00
6.196515e-01
1.734211e+00
4.167960e-01
-5.251920e-01
1.119955e+00
3.247117e-01
1.818506e-01
1.566842e+00
-9.494163e-01
-1.187630e+00
-7.163205e-01
1.314679e+00
-9.032676e-01
-3.623733e+00
4.406303e-01
-1.295972e+00
-1.843560e-02
-3.123227e-01
-3.615727e-01
1.573814e+00
-1.448504e+00
-2.457133e-01
9.621801e-01
-1.093066e+00
4.265556e-01
-1.491202e-01
7.334757e-01
9.511186e-01
1.199702e+00
-1.114937e+00
1.181871e+00
-1.468721e+00
9.124597e-01
-8.003894e-01
5.373722e-01
-2.195227e-01
6.445026e-01
4.221091e-01
-4.686314e-01
4.045576e-01
-1.140636e+00
-3.045598e-02
-9.996468e-01
3.011072e-02
-3.022221e+00
-6.863234e-01
1.197896e-02
-1.461093e+00
-1.368933e-01
-2.258711e+00
3.799321e-02
7.233632e-03
-1.683351e+00
-1.049474e+00
3.413679e-02
-4.862985e-01
3.177687e-01
5.440199e-01
-5.333580e-01
6.337735e-01
4.854648e-01
3.709641e-01
1.725456e-01
-2.867940e+00
5.893158e-02
-1.441000e+00
-3.609404e-01
-8.748437e-01
9.632627e-01
3.062298e-01
-1.783508e-01
-1.444159e+00
1.264951e-01
-4.731938e-01
1.022006e+00
1.518228e-01
5.346024e-01
1.131082e+00
-2.049763e+00
-1.096598e+00
1.832223e-01
8.238522e-01
9.021997e-01
1.153867e+00
2.064865e-01
-1.357020e+00
-1.974769e+00
-3.484821e-01
-2.043927e+00
-1.521991e-01
1.785860e+00
-2.141503e+00
-1.733464e-01
-5.620842e-01
-1.242618e+00
-4.818480e-01
3.153764e-01
-5.245776e-01
-2.072249e-01
9.386649e-01
-3.563981e-01
-6.771521e-01
1.671785e-01
3.548928e-01
2.432214e+00
-1.293828e+00
3.475085e-01
2.016523e-01
6.844422e-01
4.107971e-03
-4.551708e-01
-1.083471e+00
5.450661e-01
-3.258907e-02
-1.805302e+00
8.727919e-01
-8.565908e-01
1.165558e+00
-2.097564e-01
-1.358299e-01
2.126177e-01
-2.238523e-01
1.312801e-02
1.294174e-01
5.226021e-01
5.674787e-01
6.389629e-01
-1.415822e-01
-1.167468e-01
-8.658576e-01
3.600990e-01
1.892685e-01
-6.916511e-01
9.786245e-01
-1.079909e+00
2.984792e-01
-6.068101e-01
6.115317e-01
-1.204574e+00
-1.213992e-01
-2.196605e-01
5.992934e-02
-3.014737e-01
-8.125083e-01
-5.780084e-01
-2.237050e-02
-2.482348e-01
-1.946072e-01
2.221377e+00
8.273327e-01
-3.252041e-02
-7.849687e-01
-4.520928e-01
-9.777005e-01
-1.937040e-01
7.260402e-02
3.802989e-03
-4.656521e-01
5.611091e-02
4.914581e-01
1.020719e+00
1.119077e+00
-3.734444e-01
-6.086601e-01
1.480066e-01
-4.552081e-01
1.132388e+00
1.091895e+00
-2.884324e-01
-2.215614e+00
1.084915e+00
-4.073852e-02
9.494613e-01
4.355512e-01
-7.584760e-01
-1.556081e+00
-1.062705e-01
-1.083146e+00
-5.840914e-01
-2.131492e+00
-3.132784e-01
-2.680866e-01
2.556754e-01
-4.366645e-01
-1.339897e+00
6.294055e-01
1.138892e+00
-7.898808e-01
5.791979e-01
9.681252e-01
-1.987527e-01
5.215742e-01
7.821185e-01
-1.140738e+00
-6.473032e-01
6.339833e-02
-1.350365e+00
-5.284041e-01
3.532728e-01
9.757496e-01
1.042226e+00
9.376617e-01
2.640168e-01
1.138872e+00
-4.448013e-01
2.368203e-01
3.794200e-01
-4.452905e-01
1.096781e-03
-1.469809e+00
1.655858e-01
9.469927e-02
-9.440822e-01
-4.926957e-01
-2.698817e-01
2.112610e-01
-1.189880e+00
1.217129e+00
1.326416e-01
-2.317663e-01
5.632074e-01
-1.931856e+00
-3.012480e-02
4.006336e-01
1.116723e+00
1.186799e-01
2.708152e-01
-1.443076e+00
2.541651e+00
-1.731705e-01
7.881562e-01
-1.337402e+00
2.594990e-01
1.647618e-01
1.031860e+00
-2.501635e+00
-3.115395e-01
9.304614e-01
9.516213e-01
1.907191e-01
8.013207e-01
7.382170e-01
3.178637e-01
6.103218e-01
3.568200e-01
-2.398938e+00
-6.974683e-01
4.306924e-01
5.467680e-01
1.785038e-01
7.998648e-01
-5.230572e-01
-9.282092e-01
-2.954506e-01
-5.802034e-01
6.349522e-01
-1.209236e+00
-3.931927e+00
-4.147001e-02
3.968225e-01
3.261304e-01
3.925942e-01
-5.045619e-01
2.366005e-01
1.363265e+00
-1.341669e+00
-8.755085e-01
-3.729952e-01
1.310895e-01
-1.098527e+00
-8.889118e-01
3.883830e-01
-5.985658e-01
-4.511467e-01
-1.237147e+00
-1.893206e-01
9.032584e-01
-1.333679e+00
1.596942e-01
4.385899e-02
-2.670081e-01
7.411037e-01
-9.409925e-01
1.345831e+00
1.445599e+00
-5.356493e-02
-4.980201e-01
-8.027081e-01
-6.672014e-01
4.849418e-01
-3.054967e-02
-1.790064e-01
-3.560739e-01
-1.942260e-01
1.257715e+00
-7.813877e-01
8.201975e-01
-7.284335e-01
4.181187e-01
4.333575e-01
-1.037558e+00
1.963412e-01
2.673431e-01
-1.088077e+00
-4.842003e-01
2.138540e-01
3.740915e-01
2.227609e+00
-1.264747e+00
-1.800429e-01
1.445055e-01
7.020000e-02
8.480828e-01
-1.602774e+00
1.163664e+00
1.897460e+00
1.736903e-01
3.973980e-01
3.719086e-01
-1.411544e+00
-1.802737e+00
-2.198823e-01
-1.296154e-01
-9.981943e-02
2.422811e-01
1.649923e+00
1.112372e-01
5.475981e-01
-4.711622e-01
-2.419537e-01
1.058911e-01
1.644262e+00
1.149809e+00
-1.839342e+00
-2.919806e-01
4.855287e-01
-1.762699e+00
5.717167e-01
7.768006e-01
-2.187781e+00
1.952603e-02
-2.265107e+00
2.515380e-01
-1.386290e+00
-2.928030e-01
-3.332054e-01
2.570077e+00
1.028876e+00
-3.712871e-01
-3.758832e-01
-5.142390e-02
4.095299e-01
-2.666311e+00
1.261662e-01
-4.550817e-01
5.294402e-01
2.349741e+00
-4.258223e-01
-8.132995e-01
-9.506694e-01
2.254371e+00
1.736295e+00
-1.089842e-01
-1.151239e+00
-1.122241e-01
8.251645e-02
2.051555e-02
-1.506465e+00
1.453432e-01
8.521794e-01
-4.229840e-01
1.775896e-01
1.804414e+00
-9.524757e-01
8.909145e-01
-9.141318e-01
8.364367e-01
-4.965148e-01
1.228794e+00
4.822005e-01
7.444699e-01
4.417081e-01
-2.524726e-01
-7.521988e-01
9.415121e-02
-1.165202e+00
1.328926e-01
5.750671e-01
3.407996e-01
1.463239e-01
-7.357795e-02
-8.259214e-02
9.394538e-02
1.877385e+00
2.495970e+00
7.383156e-01
-1.196920e+00
-8.904906e-02
-7.530636e-01
-4.115685e-01
2.107004e-01
-2.309596e-01
9.865613e-02
-1.225969e-02
5.915684e-01
-2.180339e-01
-7.914502e-02
-1.460272e-01
-2.430200e-01
-3.047215e-01
6.021111e-02
-1.204420e+00
-1.888169e+00
-4.601710e-01
-2.361558e-01
-8.930395e-01
6.332695e-01
-3.918487e-01
1.162735e+00
-2.030397e+00
-2.680072e-01
-1.585403e-01
6.340058e-01
-4.745411e-01
6.994732e-01
1.009828e+00
1.709148e-01
-3.330902e-01
2.734853e-01
-7.863926e-01
1.152330e+00
-6.772114e-01
2.407340e-01
7.978123e-01
9.225483e-01
1.654174e+00
7.445788e-01
1.419689e-01
1.244674e+00
-4.863448e-01
-4.621903e-01
3.756461e-01
-9.957208e-01
-1.990551e+00
-8.375290e-01
1.089914e+00
1.224134e-03
-2.451387e-01
4.320419e-01
-1.612719e+00
-6.494135e-01
-2.110235e-01
-8.571424e-02
5.292625e-03
-7.223564e-02
-2.413179e+00
1.844227e+00
-1.168497e+00
4.514609e-01
-5.673384e-01
-2.263741e+00
-3.225887e+00
3.739068e-01
9.623532e-01
4.741605e-01
-3.438240e-02
7.962207e-01
-1.489060e+00
2.401825e+00
1.837469e-01
1.967964e-01
1.127700e-01
-5.176315e-01
-8.752486e-01
-2.204824e+00
1.031095e+00
5.196625e-01
-5.886892e-01
-5.308929e-01
-1.953474e+00
-1.308901e+00
-4.876814e-01
2.108783e+00
2.435140e+00
-6.068858e-01
-9.100038e-01
-7.359310e-02
-8.233433e-01
8.189175e-01
1.943790e+00
3.400856e-02
4.720554e-01
-1.239403e+00
-2.200590e+00
-5.641474e-02
2.644534e-01
-6.577825e-01
-7.244049e-01
2.325870e-01
-3.365382e-01
-1.561845e-01
1.381610e-01
-3.353138e-01
-1.034849e-01
-5.098615e-02
1.277283e+00
-3.169461e-01
-3.976308e-01
9.209119e-01
8.435169e-01
-4.920599e-02
-2.656948e-01
-2.767259e+00
-4.933998e-02
4.594269e-01
-8.930535e-01
-2.175163e-01
1.439831e-01
1.543494e-01
1.512010e+00
3.004973e-01
9.026785e-01
6.586910e-02
-7.901627e-01
1.289961e-01
7.272094e-01
-1.930648e+00
-2.188802e-01
9.926410e-01
-6.447904e-01
5.132305e-01
1.887215e-01
-6.343267e-01
-4.593498e-01
5.024391e-01
-2.084504e-01
1.674478e-01
2.930491e-01
-1.717267e-01
-1.730703e+00
-1.108122e+00
3.634128e-01
1.134550e+00
-5.132386e-01
-8.754316e-01
-5.130621e-01
-2.161469e+00
-4.470037e-01
-1.036750e+00
1.574831e-01
-4.382354e-01
-7.133979e-01
-2.057104e+00
-1.073343e+00
3.488208e-01
3.551418e-01
1.353949e-01
5.270896e-01
3.884722e-01
-1.845403e+00
1.739930e+00
9.151353e-01
3.078032e-01
-3.530755e-01
3.160806e-01
1.957805e-01
2.501177e-01
2.902437e-01
-1.844831e+00
-3.082739e-02
-1.348784e+00
7.806256e-01
-2.334163e+00
1.482238e+00
-1.117562e+00
5.944566e-01
1.903292e-01
-2.876237e-01
2.060361e+00
-7.693610e-01
-1.417486e+00
2.842305e-01
4.744799e-01
-5.725007e-01
-2.519483e+00
-3.016020e-01
-1.379636e+00
3.938520e-01
-1.101186e+00
-2.113757e+00
1.065559e+00
6.011208e-01
3.867563e-01
1.224604e+00
-1.762628e+00
-1.447241e+00
-5.603590e-02
-4.737480e-01
1.361458e+00
-1.528578e+00
7.314133e-02
5.795917e-01
1.878756e+00
1.635421e+00
-5.625411e-01
9.617387e-01
2.727444e-01
-5.981118e-02
-2.466794e+00
-6.938878e-01
8.153927e-01
6.139208e-01
7.249392e-01
-3.487285e-02
1.099131e-02
7.328396e-01
-5.380034e-02
-2.127341e-01
2.307071e-01
-1.609759e+00
3.369166e-01
-4.104523e-01
5.791928e-01
3.005815e-02
-7.466273e-01
1.218570e-02
-9.792188e-01
-8.219614e-01
8.986327e-01
-2.303828e+00
-7.313778e-01
4.550822e-01
1.593690e-01
6.506260e-01
-5.635795e-01
-1.748494e-01
-1.585355e+00
1.401135e+00
3.367270e-01
-1.286790e+00
1.242064e+00
-1.032566e+00
-5.570285e-01
5.212161e-01
-2.727540e+00
-1.330231e-01
6.409708e-01
6.402233e-01
-1.354257e+00
-7.303352e-01
2.081544e+00
-1.069517e+00
-1.140325e-01
6.572117e-01
7.355060e-01
6.705144e-01
1.837588e-01
-4.747432e-01
-3.601066e-02
5.165946e-01
-6.072104e-01
1.232309e+00
-1.086889e+00
-3.455575e-01
7.852512e-01
1.232955e+00
1.807699e+00
-9.992348e-01
-4.303288e-01
-3.393038e+00
-2.536964e+00
8.742171e-02
1.179804e-01
-7.962845e-01
1.780826e+00
1.602457e-01
-6.316246e-01
-3.132831e-01
-2.436232e-02
-2.343285e+00
-1.366329e+00
-9.971575e-01
4.702338e-01
7.458045e-01
-6.274309e-01
4.799927e-01
6.512836e-01
1.908502e+00
-9.632150e-01
-2.788850e-01
-3.333860e-01
1.157006e+00
-2.717863e-01
1.975337e-01
-7.325287e-01
-1.149969e+00
-5.855769e-02
-1.643644e+00
8.995348e-01
4.950473e-01
5.847581e-01
2.963609e-01
-6.046683e-01
-6.544747e-01
-5.560806e-01
-7.987734e-01
1.383813e+00
-1.466674e-01
2.330514e+00
-1.047843e-01
3.130068e-01
6.644563e-01
5.393889e-02
6.791876e-01
1.220483e-01
4.242658e-01
3.895002e-01
1.267184e-01
-5.110871e-01
1.610518e+00
-5.652972e-01
1.576109e-01
-8.503964e-01
-2.032212e-01
-1.140639e+00
-2.194624e-01
-8.680872e-01
6.798539e-01
-8.782474e-01
-3.887455e-01
-6.854225e-01
-1.681733e+00
3.998159e-01
2.271394e-01
8.970131e-01
5.032997e-01
5.450735e-01
1.037920e+00
3.991116e-01
4.347050e-01
-7.770859e-01
-1.730564e-01
1.563014e+00
-7.735876e-02
9.863236e-01
-4.038562e-01
2.429963e+00
9.195833e-01
2.172507e-01
-6.454727e-01
-2.406285e-01
5.385217e-01
-5.909828e-02
2.023692e-01
1.276848e+00
1.443119e-01
1.100992e+00
1.119596e+00
-7.612421e-01
1.066865e+00
-3.978398e-01
-4.193791e-01
1.320426e+00
-9.957924e-01
-2.851445e+00
7.299967e-01
6.313089e-02
-1.164014e+00
-5.082222e-01
-1.277565e+00
1.838572e-03
1.463108e+00
5.577241e-01
-5.140937e-01
-2.909178e+00
1.017359e+00
5.660524e-01
-1.868503e+00
1.145822e+00
-8.071083e-01
-4.095296e-01
7.602381e-01
-4.973947e-01
5.782572e-01
-1.516317e-01
7.682098e-01
3.371931e-01
-1.672057e+00
-6.988921e-01
9.636476e-01
-1.947261e+00
-1.421619e-01
6.995615e-02
-8.475790e-01
-2.968977e-02
-7.381683e-01
2.369682e-01
3.356384e-02
5.734716e-01
-1.419719e-02
-1.284931e+00
5.734290e-01
9.503243e-01
-1.833123e+00
9.406318e-02
-1.748874e-01
-1.962010e-01
-8.845983e-01
-1.632171e+00
3.569953e-02
4.507029e-01
6.950249e-02
-4.165643e-01
-1.240995e-01
-6.725733e-01
-2.917767e-01
-1.664226e+00
-1.234063e+00
-8.311539e-01
-1.818417e+00
-3.714916e-01
-1.153102e+00
-2.662753e-01
-8.901120e-01
1.542758e+00
-3.918149e-01
-1.279817e+00
1.965919e-01
7.703933e-01
9.078320e-01
1.203901e-01
1.915303e+00
2.024289e-01
1.755985e+00
4.816296e-01
-3.942490e-01
-4.641131e-01
-6.823316e-01
-3.858084e-01
1.905219e-01
-1.217316e-01
3.363531e-01
-9.074944e-01
-1.863776e+00
-2.821222e-01
-6.649382e-01
1.583939e-01
9.632180e-01
8.561570e-01
-1.140586e-01
-5.287434e-03
-8.002904e-01
-2.697398e-01
7.647280e-02
-5.394298e-01
1.352565e+00
1.477402e+00
2.822108e-01
-1.629461e+00
-1.216348e+00
7.150562e-01
4.231848e-01
-6.729108e-01
-8.080123e-01
-3.028039e-01
1.518207e+00
