[[ 0.00947462 -0.42105206  0.17023654]
 [ 0.05887057 -0.75782505  0.61358951]
 [ 0.05395569  1.21900702  0.93052909]
 [ 0.34861163 -1.46138164 -0.50870978]
 [-1.45622399 -0.38349098 -0.47433108]
 [ 0.19535434  0.47402879  0.04337212]
 [ 1.4289147  -0.06669214  0.5290019 ]
 [-1.70351888  0.83374105  0.93645754]
 [ 0.70210267 -0.80801928 -0.63594971]
 [-0.7538087  -1.57308161  0.20885353]
 [-1.14779245 -0.85134229 -0.1524491 ]
 [-0.36192024 -0.71401724 -0.95002664]
 [-0.34315225 -0.82047931  1.72938257]
 [ 0.28995507 -0.8090509   0.21241904]
 [-0.14038511 -0.08935774 -0.80258415]
 [-1.11285448 -1.63610206  1.90654418]
 [-0.63915171 -0.7033204  -0.07147648]
 [-0.82738618 -0.32400508 -2.28426514]
 [-0.51317252  0.30238038  1.93667277]
 [ 1.838985   -0.72778673  0.09235849]
 [ 0.75061107 -0.89880472  0.19624006]
 [ 1.32681766  1.87993263 -0.62410128]
 [-1.15345178 -0.53894624  0.88978937]
 [ 0.46695229 -0.23922703  0.11089677]
 [ 0.8484385  -1.42039667  0.34776973]
 [-1.09687437  1.17480847 -0.6995111 ]
 [-1.7935327  -1.01676848 -0.85541904]
 [-0.64782226  0.40639986  0.11134461]
 [ 0.98897668  0.82181282 -0.06121116]
 [-1.69740321 -0.72905085  2.53335267]
 [-1.44949059 -0.62236247  0.16591731]
 [-0.79791169  2.3745137  -0.28591543]
 [-0.53844868  0.55788463 -0.50632674]
 [ 0.67249077 -2.22678188 -1.09619633]
 [ 0.03004644  0.49756352 -0.46369557]
 [ 1.39275821  0.0385237  -0.73654716]
 [-1.72417823 -0.10527615  0.18729203]
 [-1.14852377  0.65332228  2.0677766 ]
 [ 0.97269714  0.58163569 -0.12393612]
 [-0.15588973  0.69786183  0.06287887]
 [-1.64036441  0.60116785 -0.13126577]
 [-1.00348336 -0.38830355 -0.39930005]
 [ 0.81217109 -1.66416535  0.79194245]
 [ 0.04182842  0.54529652  1.34036771]
 [ 0.73159471  1.42816787  0.63037843]
 [ 1.33590176  1.59360776 -1.5688563 ]
 [ 0.59337226 -1.00290505  0.20101108]
 [ 0.6179602  -0.71079298 -0.11489557]
 [ 1.89755046 -0.38594091 -0.43566852]
 [-0.66254548 -1.47955337  0.53267089]
 [ 0.28300707  0.38670193  0.11927863]
 [ 0.49300733  2.04690608  1.76387004]
 [ 2.62375978 -1.14847626 -1.49248312]
 [ 0.11161975 -1.91224352 -1.18972301]
 [ 0.52260054  0.46949853  0.54416067]
 [-0.28541486 -0.84019459  0.09334808]
 [ 0.01205106  0.63855766 -0.08923318]
 [-1.46341961 -0.41337978 -0.47547713]
 [ 0.04018484 -0.36626953 -0.54718197]
 [ 0.30317639 -1.12303423 -0.34888307]
 [-1.2785308  -0.43731155 -0.37085299]
 [ 0.39618986 -0.07062174  1.6858017 ]
 [ 0.60761817 -1.12912557 -1.55647076]
 [-1.36033478 -1.13761109 -1.58346413]
 [ 1.64583864  0.69719848  0.91764098]
 [ 1.44698024  0.15100673 -0.99403537]
 [-0.3486032   0.10272515 -0.88818238]
 [ 0.35702914 -0.66798583  0.27638958]
 [-1.44595127 -1.27540972  0.43658808]
 [ 1.60037978 -0.24431722  0.06749728]
 [-0.85135937  2.00309456  0.6948974 ]
 [-1.41366938 -0.22864967  0.47746152]
 [-0.53373555 -0.1069902  -1.23146303]
 [ 0.09237746 -0.42853472 -1.322835  ]
 [-0.63989081  0.31523956 -1.22137908]
 [-0.26637262 -0.78363377 -1.45222499]
 [-0.88722488 -0.54330079  0.07018562]
 [ 0.20656876  0.87644266 -0.15870141]
 [-1.12361042 -0.62374422  0.00563062]
 [ 0.79098492  0.14274536  0.24407619]
 [-1.02438066  1.22202827 -0.6924898 ]
 [-0.40585268 -0.8453492  -0.69382271]
 [-0.61193127 -0.58731597 -0.53911323]
 [ 0.11157536 -0.78394641  0.60644936]
 [ 0.29887789  0.05138842  0.01435245]
 [-0.03556289 -1.39154948  0.89119574]
 [-0.21765485 -1.49028444 -1.84938441]
 [-0.19266577  1.02355127 -2.40826861]
 [ 1.31372179 -0.47864789  1.3058232 ]
 [-0.02313424  0.35977896  0.39746167]
 [-0.24101884 -1.11274062 -0.28525945]
 [-2.35372499  0.19308902 -1.25417324]
 [ 0.11483686 -1.48263349 -0.78019299]
 [-0.31539286 -1.51653117  0.66530208]
 [-0.62237289  0.93275823 -0.45001577]
 [-0.90856292  0.51447242 -1.47262838]
 [-1.26654563  0.74909475  1.2175725 ]
 [-1.38479265  0.38639092  1.66869676]
 [-0.47580201  1.45890227  1.57837661]
 [-1.79218648 -0.02080542 -0.86182136]
 [ 0.43395724  2.140085    0.77174008]
 [-0.43767629 -0.08743201 -1.63714527]
 [-1.42647645  0.65147139 -0.44815757]
 [ 0.57633901  1.66294331  0.46645632]
 [-0.20435388 -0.64727349  1.47241274]]