-1.011850e+00
-1.697208e+00
3.040887e-01
-1.058199e+00
2.943886e-01
-4.904207e-01
1.298762e-01
-6.333858e-01
8.623524e-02
-1.376635e+00
-1.128804e+00
-4.434172e-01
1.065298e-01
-9.311280e-01
2.982900e+00
3.116245e-01
-5.254419e-01
2.938741e-01
-2.241342e+00
-6.675231e-01
-5.567154e-01
6.445718e-01
-2.972624e-01
-9.029934e-01
-1.149862e+00
-3.857506e-01
-1.050150e-01
-4.954607e-01
-1.797042e+00
1.663915e+00
4.492524e-01
-8.795868e-01
1.793297e-02
-3.183367e-01
9.104583e-01
1.131424e+00
1.471888e-01
1.079370e+00
-3.618719e-01
-3.663476e-01
6.877556e-01
-2.451024e+00
-1.849756e-01
-3.697621e-01
-8.314982e-01
-9.197693e-01
-1.281870e-01
-2.014860e+00
2.430800e+00
-1.625816e+00
-3.232545e-01
-3.926924e-01
-1.999690e+00
9.632310e-02
-3.400153e-01
-2.608120e-04
-1.326567e+00
6.980428e-01
-6.856118e-01
3.194764e-01
2.054069e+00
-8.265116e-01
-1.156782e+00
-7.728622e-01
3.393426e-01
1.919043e-01
1.305026e+00
-4.455804e-01
-5.379151e-02
2.544503e+00
-1.947038e+00
9.168563e-01
-7.422276e-01
-8.501101e-01
-3.619250e-01
-1.971314e-02
-5.033532e-02
3.207891e-01
4.125979e-01
1.669854e+00
5.869970e-01
-2.880555e-02
-3.844514e-01
3.639770e-01
2.158568e+00
-1.059912e+00
-5.481489e-01
9.869638e-01
-3.504021e-01
7.692444e-02
2.939184e-01
-7.989082e-01
4.008988e-01
-4.435903e-02
1.065265e+00
3.707868e-02
-8.665996e-01
7.431464e-01
-6.355053e-01
4.309832e-01
-7.511889e-01
6.020523e-01
-4.791427e-01
-4.789428e-01
5.802203e-01
9.100495e-01
-2.884115e-01
1.914137e-01
1.671091e+00
4.539408e-03
-2.643079e+00
1.656168e+00
2.617887e-01
1.063357e-01
-1.177698e+00
1.170478e+00
1.253062e-02
-1.113006e+00
2.428217e-01
-7.711272e-01
-7.402054e-01
1.361570e+00
-1.162536e+00
-1.002181e+00
-1.795815e-01
-1.476791e+00
3.590707e-01
2.921071e-01
8.225537e-01
1.789789e+00
7.526438e-01
-7.267114e-02
-1.973384e+00
-1.322014e+00
6.263661e-01
1.734211e+00
4.196760e-01
-5.394059e-01
1.119955e+00
3.247117e-01
1.761697e-01
1.566842e+00
-9.494163e-01
-1.187717e+00
-7.163205e-01
1.314679e+00
-9.066823e-01
-3.623733e+00
4.057153e-01
-1.276168e+00
-1.843560e-02
-3.109115e-01
-3.617771e-01
1.563359e+00
-1.454912e+00
-2.506373e-01
9.621801e-01
-1.092977e+00
4.577244e-01
-1.380056e-01
7.429830e-01
9.625358e-01
1.167562e+00
-1.122490e+00
1.202701e+00
-1.486097e+00
9.006900e-01
-9.246035e-01
5.469513e-01
-2.195227e-01
6.767920e-01
4.220159e-01
-4.685850e-01
4.045576e-01
-1.140636e+00
-3.307665e-02
-9.996468e-01
7.231664e-02
-3.022221e+00
-6.863234e-01
2.220549e-02
-1.469743e+00
-8.707560e-02
-2.207081e+00
1.078833e-02
7.233632e-03
-1.683351e+00
-1.093468e+00
1.813867e-02
-5.311847e-01
3.125351e-01
5.440199e-01
-5.265237e-01
6.212409e-01
4.780833e-01
3.709641e-01
1.358511e-01
-2.867940e+00
6.671258e-02
-1.458801e+00
-3.683738e-01
-8.748437e-01
9.781319e-01
3.062298e-01
-1.997108e-01
-1.457953e+00
9.452339e-02
-4.849732e-01
1.022006e+00
2.089158e-01
5.446263e-01
1.130730e+00
-2.047607e+00
-1.096598e+00
2.521780e-01
8.238522e-01
9.221306e-01
1.100696e+00
2.056595e-01
-1.357020e+00
-1.967656e+00
-3.953377e-01
-2.043927e+00
-1.396472e-01
1.785860e+00
-2.133796e+00
-1.733464e-01
-5.563980e-01
-1.216004e+00
-4.818480e-01
1.564178e-01
-5.265289e-01
-2.066827e-01
9.768878e-01
-3.710228e-01
-6.753778e-01
1.658408e-01
3.586501e-01
2.432214e+00
-1.290885e+00
3.475085e-01
1.788562e-01
6.648828e-01
4.107971e-03
-4.551708e-01
-1.083471e+00
5.432909e-01
-3.576702e-02
-1.805302e+00
8.729783e-01
-8.565908e-01
1.165558e+00
-2.049341e-01
-1.305191e-01
2.826770e-01
-2.322749e-01
4.967052e-02
1.310237e-01
5.226021e-01
5.619765e-01
6.389629e-01
-1.419804e-01
-1.101508e-01
-8.558639e-01
3.600990e-01
1.656372e-01
-6.916511e-01
9.771013e-01
-1.079909e+00
2.915992e-01
-5.348780e-01
6.104751e-01
-1.194749e+00
-1.677997e-01
-2.223429e-01
5.702482e-02
-3.499686e-01
-8.087139e-01
-5.648317e-01
-2.237050e-02
-2.486011e-01
-1.803508e-01
2.221377e+00
8.262088e-01
-5.485360e-02
-7.857917e-01
-4.519679e-01
-9.777005e-01
-1.958367e-01
6.378337e-02
3.802989e-03
-5.326934e-01
9.080644e-02
5.030857e-01
1.020719e+00
1.145617e+00
-3.670535e-01
-6.157124e-01
1.480066e-01
-4.552081e-01
1.134685e+00
1.091895e+00
-2.654132e-01
-2.215614e+00
1.096906e+00
-7.257695e-02
9.068560e-01
4.355512e-01
-7.584760e-01
-1.560499e+00
-1.093587e-01
-1.087820e+00
-5.840914e-01
-2.121667e+00
-3.485313e-01
-2.626019e-01
2.011638e-01
-4.381802e-01
-1.341105e+00
6.259283e-01
1.126933e+00
-7.898808e-01
5.718508e-01
9.681252e-01
-2.417708e-01
6.181350e-01
7.774628e-01
-1.140738e+00
-6.473032e-01
6.339833e-02
-1.350365e+00
-5.254688e-01
3.520397e-01
9.757496e-01
1.042226e+00
9.688607e-01
2.640168e-01
1.148435e+00
-4.688241e-01
2.398832e-01
3.152484e-01
-4.450299e-01
-5.501196e-02
-1.469809e+00
1.655858e-01
9.469927e-02
-9.256917e-01
-4.933064e-01
-2.737152e-01
2.509391e-01
-1.187972e+00
1.180271e+00
1.034968e-01
-1.965464e-01
5.653299e-01
-1.931856e+00
-3.310995e-02
4.014790e-01
1.157446e+00
1.161154e-01
1.605964e-01
-1.443076e+00
2.541651e+00
-1.796983e-01
7.881562e-01
-1.335386e+00
2.594632e-01
1.430762e-01
1.032529e+00
-2.501462e+00
-3.227838e-01
9.285346e-01
9.898413e-01
1.925688e-01
7.881337e-01
7.501702e-01
3.724232e-01
6.611450e-01
3.805132e-01
-2.398938e+00
-6.949387e-01
3.458841e-01
5.416395e-01
1.785038e-01
8.151197e-01
-5.214954e-01
-9.425916e-01
-3.115589e-01
-5.718133e-01
6.360329e-01
-1.197898e+00
-3.911334e+00
-7.479792e-03
4.034983e-01
3.174292e-01
4.493597e-01
-5.045619e-01
1.585070e-01
1.363265e+00
-1.310041e+00
-8.778767e-01
-3.692118e-01
1.258943e-01
-1.098527e+00
-8.813351e-01
3.672130e-01
-5.788071e-01
-4.543567e-01
-1.230162e+00
-1.941295e-01
9.032584e-01
-1.333679e+00
1.850417e-01
3.653430e-02
-2.675919e-01
7.530330e-01
-9.458112e-01
1.345831e+00
1.447350e+00
-5.923649e-02
-5.112137e-01
-8.235800e-01
-6.774395e-01
5.111664e-01
-1.916642e-02
-1.740261e-01
-3.863401e-01
-1.942260e-01
1.257715e+00
-8.087325e-01
8.201975e-01
-7.405522e-01
4.501501e-01
4.024539e-01
-1.037558e+00
1.569084e-01
2.303319e-01
-1.093916e+00
-4.791244e-01
2.177216e-01
3.342348e-01
2.223869e+00
-1.254530e+00
-1.834048e-01
1.494678e-01
6.698809e-02
8.367791e-01
-1.602774e+00
1.163664e+00
1.897460e+00
1.338831e-01
3.836832e-01
3.719086e-01
-1.397136e+00
-1.802737e+00
-1.836495e-01
-1.296154e-01
-1.148735e-01
2.387548e-01
1.649923e+00
1.111918e-01
5.643290e-01
-4.710233e-01
-2.053345e-01
1.058911e-01
1.644262e+00
1.149809e+00
-1.839342e+00
-2.950430e-01
4.727287e-01
-1.770288e+00
5.667935e-01
7.765790e-01
-2.188289e+00
1.749416e-02
-2.264665e+00
2.157731e-01
-1.380594e+00
-3.010921e-01
-3.068241e-01
2.570077e+00
9.864844e-01
-3.719207e-01
-3.399550e-01
-5.678019e-02
4.095299e-01
-2.666311e+00
1.262363e-01
-4.225324e-01
5.600435e-01
2.349741e+00
-4.258223e-01
-7.987235e-01
-9.506694e-01
2.254371e+00
1.736295e+00
-8.680096e-02
-1.151239e+00
-1.139879e-01
3.097746e-02
3.437289e-02
-1.506465e+00
1.128213e-01
8.521794e-01
-4.220500e-01
1.775896e-01
1.793555e+00
-9.524757e-01
8.922269e-01
-9.183112e-01
8.549747e-01
-4.965148e-01
1.228794e+00
4.822005e-01
7.419979e-01
4.417081e-01
-2.166567e-01
-7.470561e-01
7.170335e-02
-1.153187e+00
1.367979e-01
5.730472e-01
3.611921e-01
1.550910e-01
-8.465155e-02
-1.196548e-01
1.114189e-01
1.877385e+00
2.495970e+00
6.972101e-01
-1.196920e+00
-8.904906e-02
-7.722020e-01
-4.111164e-01
1.913422e-01
-1.831497e-01
2.205897e-01
-1.932056e-02
5.847227e-01
-2.206803e-01
-7.914502e-02
-1.461958e-01
-2.487171e-01
-3.047215e-01
7.668442e-02
-1.190630e+00
-1.888169e+00
-4.520085e-01
-2.311333e-01
-8.794576e-01
6.398613e-01
-3.918487e-01
1.175915e+00
-2.020648e+00
-2.680072e-01
-1.640626e-01
6.104800e-01
-4.193662e-01
6.994732e-01
1.048533e+00
1.618651e-01
-3.305980e-01
2.712503e-01
-7.826391e-01
1.154492e+00
-6.772114e-01
2.129525e-01
7.978123e-01
9.225483e-01
1.646692e+00
6.977546e-01
7.847376e-02
1.209174e+00
-4.837306e-01
-4.832103e-01
3.802750e-01
-9.957208e-01
-1.990551e+00
-8.264157e-01
1.110295e+00
1.023052e-02
-2.265674e-01
4.523205e-01
-1.541959e+00
-6.494135e-01
-2.263365e-01
-8.562264e-02
4.237294e-03
-7.713755e-02
-2.374821e+00
1.844227e+00
-1.168497e+00
4.507697e-01
-5.538208e-01
-2.264080e+00
-3.225887e+00
3.747257e-01
9.620234e-01
4.525454e-01
-3.438240e-02
7.962207e-01
-1.457919e+00
2.397456e+00
1.880025e-01
2.105768e-01
1.222560e-01
-5.185146e-01
-8.752486e-01
-2.199747e+00
1.031095e+00
5.453078e-01
-6.034136e-01
-5.498850e-01
-1.953474e+00
-1.308901e+00
-4.321746e-01
2.108783e+00
2.435140e+00
-6.068858e-01
-9.099387e-01
-6.888785e-02
-8.233433e-01
7.341978e-01
1.935165e+00
7.934020e-02
4.722452e-01
-1.239403e+00
-2.187524e+00
-6.362545e-02
2.644534e-01
-6.459928e-01
-7.242981e-01
2.325870e-01
-3.319703e-01
-1.561845e-01
1.328477e-01
-3.442127e-01
-1.034849e-01
-4.909520e-02
1.266982e+00
-3.251611e-01
-3.602649e-01
9.209119e-01
8.444563e-01
-5.393269e-02
-2.437611e-01
-2.767259e+00
-4.757135e-02
4.506763e-01
-8.914551e-01
-2.175163e-01
8.182699e-02
1.271076e-01
1.523700e+00
3.004973e-01
9.026785e-01
7.062491e-02
-7.898531e-01
1.384978e-01
7.734625e-01
-1.858776e+00
-1.810028e-01
9.982462e-01
-6.424626e-01
5.063575e-01
1.126386e-01
-6.343267e-01
-4.594552e-01
5.037212e-01
-1.890407e-01
1.197702e-01
2.930491e-01
-1.716933e-01
-1.730703e+00
-1.108122e+00
3.590098e-01
1.113959e+00
-5.132386e-01
-8.724962e-01
-5.013210e-01
-2.161240e+00
-3.991813e-01
-1.035963e+00
1.828977e-01
-4.467381e-01
-7.701802e-01
-2.057104e+00
-1.073169e+00
3.332942e-01
3.231876e-01
1.362748e-01
5.280764e-01
3.884722e-01
-1.832464e+00
1.735453e+00
9.161744e-01
3.072370e-01
-3.577202e-01
3.484308e-01
1.951712e-01
2.501177e-01
2.965752e-01
-1.759380e+00
-6.120047e-02
-1.348784e+00
7.490123e-01
-2.334163e+00
1.469199e+00
-1.092929e+00
6.723498e-01
1.889554e-01
-2.529240e-01
2.060361e+00
-7.877180e-01
-1.397993e+00
2.082374e-01
3.834833e-01
-5.782787e-01
-2.519483e+00
-3.016020e-01
-1.375940e+00
4.043836e-01
-1.071002e+00
-2.117571e+00
1.065559e+00
6.013558e-01
3.911496e-01
1.222913e+00
-1.762628e+00
-1.448595e+00
-5.006798e-02
-4.885918e-01
1.361458e+00
-1.528578e+00
3.309239e-02
5.795917e-01
1.886653e+00
1.639038e+00
-5.498420e-01
9.617387e-01
2.727444e-01
-1.901376e-02
-2.470709e+00
-6.826205e-01
8.542137e-01
6.139208e-01
7.249392e-01
-3.448415e-02
5.599448e-02
7.328396e-01
-5.742322e-02
-2.134245e-01
2.364288e-01
-1.556812e+00
3.073844e-01
-4.610481e-01
5.791928e-01
3.800942e-02
-7.487822e-01
5.398030e-02
-9.239209e-01
-8.211141e-01
8.852264e-01
-2.213399e+00
-7.720413e-01
4.531073e-01
1.210204e-01
6.588921e-01
-5.619564e-01
-1.748957e-01
-1.581359e+00
1.401135e+00
3.116427e-01
-1.283013e+00
1.242064e+00
-1.004637e+00
-5.570285e-01
4.808700e-01
-2.720507e+00
-1.110731e-01
6.409708e-01
6.796385e-01
-1.354257e+00
-7.288096e-01
2.011168e+00
-1.066986e+00
-1.140325e-01
6.572117e-01
7.573960e-01
6.847233e-01
1.877980e-01
-4.747432e-01
-3.403783e-02
5.391593e-01
-6.078177e-01
1.209229e+00
-1.119095e+00
-3.428233e-01
7.852512e-01
1.232955e+00
1.784265e+00
-1.003784e+00
-4.195687e-01
-3.393038e+00
-2.536964e+00
9.295119e-02
1.176606e-01
-7.962845e-01
1.772378e+00
1.368664e-01
-6.338133e-01
-3.516381e-01
1.078547e-02
-2.343285e+00
-1.366329e+00
-9.971575e-01
4.732187e-01
7.486997e-01
-6.274309e-01
4.799927e-01
6.512836e-01
1.908502e+00
-9.659030e-01
-2.788850e-01
-3.406018e-01
1.156546e+00
-2.717863e-01
2.009688e-01
-7.351339e-01
-1.149969e+00
-5.583279e-02
-1.645228e+00
8.995348e-01
4.263103e-01
6.095278e-01
3.240709e-01
-6.246738e-01
-6.261881e-01
-5.358041e-01
-8.147321e-01
1.384236e+00
-1.168719e-01
2.330514e+00
-5.349979e-02
3.130068e-01
6.607337e-01
6.492333e-02
6.824268e-01
2.174271e-01
3.848438e-01
3.881555e-01
1.308264e-01
-5.086929e-01
1.610363e+00
-5.652972e-01
1.652321e-01
-8.464707e-01
-2.037782e-01
-1.140639e+00
-2.203752e-01
-8.589497e-01
6.497250e-01
-8.369827e-01
-4.233859e-01
-6.663692e-01
-1.681733e+00
4.123194e-01
2.739471e-01
8.994830e-01
5.032997e-01
5.481097e-01
1.042035e+00
4.988827e-01
4.407859e-01
-7.610233e-01
-1.828875e-01
1.576632e+00
-7.772267e-02
9.863236e-01
-4.038562e-01
2.433800e+00
9.195833e-01
2.506589e-01
-6.454727e-01
-2.406381e-01
5.385217e-01
-5.827632e-02
2.606263e-01
1.273742e+00
1.445188e-01
1.100992e+00
1.120939e+00
-7.612421e-01
1.125067e+00
-3.952311e-01
-4.180244e-01
1.336791e+00
-9.750125e-01
-2.850888e+00
6.983539e-01
6.689185e-02
-1.164014e+00
-5.082222e-01
-1.280819e+00
3.216608e-02
1.463108e+00
5.237535e-01
-5.138371e-01
-2.909178e+00
9.450446e-01
5.660524e-01
-1.868829e+00
1.139473e+00
-7.985404e-01
-4.294172e-01
6.903088e-01
-4.973947e-01
5.885357e-01
-1.428767e-01
7.682098e-01
2.777738e-01
-1.596302e+00
-6.753014e-01
9.713827e-01
-1.947261e+00
-1.405941e-01
5.673405e-02
-8.475790e-01
-6.384012e-02
-7.396323e-01
2.369682e-01
3.815869e-02
5.723974e-01
-9.601380e-03
-1.275675e+00
5.271831e-01
9.507929e-01
-1.861735e+00
6.907856e-02
-1.807527e-01
-1.237791e-01
-8.860515e-01
-1.632171e+00
5.796513e-02
4.270371e-01
6.165664e-02
-4.932720e-01
-1.240995e-01
-6.974589e-01
-2.929224e-01
-1.664226e+00
-1.230153e+00
-8.355551e-01
-1.818417e+00
-3.637398e-01
-1.153704e+00
-2.715891e-01
-8.901120e-01
1.543372e+00
-3.808335e-01
-1.279817e+00
1.965919e-01
7.703933e-01
9.075222e-01
1.172718e-01
1.915303e+00
1.942158e-01
1.755985e+00
4.948825e-01
-3.698400e-01
-4.420692e-01
-6.773050e-01
-3.733535e-01
2.348266e-01
-1.466246e-01
3.757211e-01
-9.022710e-01
-1.862165e+00
-2.577592e-01
-6.929969e-01
1.307060e-01
9.632180e-01
8.483780e-01
-1.125808e-01
1.050240e-02
-8.002904e-01
-2.697398e-01
6.029941e-02
-5.358330e-01
1.352565e+00
1.477402e+00
2.747441e-01
-1.637662e+00
-1.257050e+00
7.140933e-01
4.951537e-01
-7.315966e-01
-7.943978e-01
-2.880849e-01
1.518207e+00
