4.522574e-01 -6.854532e-01 -1.420284e-01 7.094590e-01 -6.977844e-02 4.214564e-01 -7.329863e-01 1.274844e+00 -8.127242e-01 9.046527e-01 -1.898972e+00 1.934271e+00 2.054615e-01 -3.874468e-01 -7.585561e-01 8.655823e-02 2.367228e-01 6.741321e-01 1.921043e-01 -8.403597e-01 9.108813e-01 3.103750e-01 -1.931824e-01 -1.001539e+00 -2.362980e+00 8.994129e-01 -7.091690e-01 1.179315e+00 -8.311563e-01 -1.612785e-01 -1.240079e+00 5.886262e-01 -9.865247e-01 1.159362e+00 -3.931981e+00 8.355024e-01 -3.650189e-01 -4.388466e-01 1.046509e+00 1.734759e+00 4.832389e-01 -6.141630e-01 2.476573e-01 -3.497862e-01 4.511524e-01 -1.840212e+00 -1.246780e+00 -8.652989e-01 2.271205e-01 -1.479992e+00 -1.413051e+00 1.622240e+00 -1.292000e-01 -7.304089e-01 -1.585048e-01 1.050448e+00 1.775798e+00 -7.665371e-01 -1.985299e+00 4.466485e-01 4.128775e-01 9.814844e-01 -1.663337e-01 -1.339910e+00 1.071723e-01 3.326059e-01 9.257170e-01 6.534103e-01 -1.775700e+00 -2.306384e-01 -9.293746e-01 -1.102605e+00 1.086344e-01 -9.139924e-01 8.376912e-01 1.423630e-01 -8.372284e-01 -3.043037e-01 2.625741e+00 7.304731e-01 -7.700660e-01 3.909909e-01 -6.047093e-01 -2.164856e+00 -2.094776e-01 -1.812286e-01 1.046074e+00 2.655275e-01 7.792744e-02 -8.126870e-01 -5.467359e-01 -9.052161e-01 6.511300e-01 -1.428863e-01 -1.348716e+00 1.065007e+00 -1.608488e+00 1.454651e+00 -1.014612e-01 1.095974e+00 8.222284e-01 8.915232e-01 1.888555e-01 -1.518535e+00 -2.791487e-01 8.672731e-01 -3.492655e-01 -8.313343e-02 1.582860e+00 -6.496833e-01 -1.000076e+00 5.870684e-01 1.848945e-01 2.433903e-01 1.878754e+00 -6.842051e-01 -4.284267e-01 6.816652e-01 1.510203e-01 1.439842e+00 4.241749e-01 3.351986e-01 -3.535003e-01 -1.267488e+00 4.230758e-02 1.199022e-01 -2.485817e-01 1.008381e+00 -1.415483e+00 2.441586e-01 -4.259746e-01 -6.664371e-01 3.566889e-01 9.182944e-01 3.889821e-02 -1.447832e-01 4.503703e-02 2.023827e-01 -1.910552e+00 -5.182665e-02 1.544240e+00 2.693081e-01 7.482813e-01 1.402223e+00 -9.988485e-02 1.503177e-01 -6.546798e-01 -4.885554e-01 1.374829e+00 -6.838188e-02 -5.645447e-01 1.041039e+00 1.830088e-01 -1.348847e+00 -1.909113e+00 3.934009e-01 -8.414900e-01 4.937160e-01 2.959164e-01 -6.854461e-01 1.015957e-01 -8.893098e-02 2.077528e-01 -1.486450e+00 4.346800e-01 2.707607e-01 -3.053841e-01 -1.273001e+00 3.915316e-01 1.452695e+00 -3.021869e-01 -8.429400e-01 5.329933e-01 -5.210715e-01 7.121708e-01 -9.549208e-01 -7.115030e-01 -1.110971e+00 -1.728932e-01 -6.299554e-01 4.160328e-01 4.539701e-01 5.767033e-02 5.151473e-01 7.997069e-01 -2.162717e-01 -1.284844e+00 9.463597e-01 3.773359e-01 6.317528e-02 -1.461338e+00 2.299135e-01 4.682653e-01 -2.054505e+00 -3.398197e-01 -1.504703e-01 -7.956817e-01 -9.189858e-01 7.451310e-01 -8.489425e-01 1.181641e+00 -1.331705e-01 1.337045e+00 2.303265e+00 -1.354642e+00 8.473075e-01 -7.914103e-01 1.949531e-01 1.890140e+00 -5.626330e-02 9.816344e-02 -3.292802e-01 1.245244e+00 -7.294539e-01 9.321082e-01 1.111110e-02 -4.003596e-01 7.438673e-02 3.891324e-01 2.326838e+00 2.337690e-02 7.047407e-01 -4.092609e-01 4.174030e-02 -1.114872e+00 -1.208338e+00 1.378695e-01 -1.264545e+00 1.213262e+00 -2.969696e-01 6.180286e-01 -9.187706e-01 -9.322816e-01 1.963165e-01 8.589959e-01 2.983596e-01 -1.974106e+00 -3.744955e-01 6.666955e-01 -1.333664e+00 -8.651233e-01 6.972957e-02 -6.047036e-01 4.280751e-01 -2.303745e-01 6.337046e-01 -3.724477e-02 8.039057e-01 -1.267355e+00 -7.874581e-01 4.001452e-01 -4.237485e-01 1.481928e+00 2.191784e+00 1.374446e+00 -1.403534e-01 5.663478e-01 6.550718e-01 -1.258890e+00 1.255079e-01 -1.219277e+00 -1.916599e-01 -1.870191e+00 -1.091543e+00 5.117749e-01 -6.516667e-01 -1.155045e+00 -3.217518e-01 5.898330e-01 2.085303e+00 1.133653e+00 -4.224368e-02 1.311832e+00 -7.388176e-02 1.550654e+00 7.174042e-01 -1.383792e+00 8.840217e-02 6.274765e-01 8.194453e-02 -2.253220e+00 -5.259679e-01 5.981736e-01 2.602130e-02 1.140046e+00 -2.639477e-01 -3.474528e-02 1.433548e-01 5.272094e-01 2.678557e-01 -1.190588e+00 -6.652572e-01 -8.124354e-01 8.235521e-01 6.066111e-01 3.233181e-01 -1.312304e-02 -1.031264e+00 -7.905699e-01 1.469171e+00 5.596384e-01 -7.283595e-01 -7.985421e-01 -1.877190e-01 -7.771517e-01 4.097550e-01 -1.627623e-01 -1.729449e+00 5.707910e-01 -3.501478e-01 9.803175e-03 1.730878e+00 -1.371689e-01 3.063461e-01 1.562961e+00 -1.052458e+00 2.712100e-01 -5.023889e-01 6.244833e-01 -1.020969e+00 5.197480e-01 3.450092e-01 -5.601105e-01 4.047216e-01 1.403844e+00 -4.317884e-01 1.658266e+00 -4.013459e-01 3.541344e-01 -6.269648e-01 1.325576e-01 6.411079e-01 1.149606e+00 -4.121851e-01 6.692444e-01 2.224512e-01 -5.479645e-01 -3.317716e-01 -7.973256e-01 1.941913e+00 4.679545e-01 -1.489670e-01 -7.890394e-02 4.501226e-01 3.498664e-01 1.314745e+00 7.261676e-01 1.222597e+00 1.310110e-01 5.561243e-01 6.810125e-01 -2.051728e-01 -1.491650e+00 2.162055e-01 -1.846217e+00 -1.713075e+00 -5.536724e-01 -1.742362e+00 -6.173538e-01 -2.095236e-01 3.155722e-01 3.492561e-02 -4.433501e-02 -1.256471e+00 -2.739880e+00 9.688262e-01 4.756570e-01 -8.783478e-01 5.091460e-01 -5.358071e-01 4.360273e-01 5.838313e-01 -1.272581e+00 5.429383e-01 -1.040538e+00 -7.734208e-01 1.016197e+00 -1.044697e+00 1.820679e-01 3.964416e-01 -1.022106e+00 -2.689677e-02 6.688746e-02 5.671716e-01 -5.991245e-01 1.595880e+00 -1.653866e-01 -8.350154e-01 1.217530e+00 -5.040455e-01 1.060165e+00 1.255076e+00 2.817264e-01 2.338238e+00 -8.296105e-01 1.464067e+00 1.006752e+00 -1.469956e+00 -5.043993e-01 -4.817258e-01 2.003265e+00 -1.268276e-01 9.625156e-01 -8.192446e-01 2.371023e+00 -1.391397e-01 -1.035766e-01 -1.410189e+00 4.081748e-01 1.523779e-03 1.452512e+00 5.262313e-01 -5.667875e-02 -2.740305e-01 -2.463159e+00 -6.792936e-01 1.216043e-01 2.256259e+00 -4.461242e-01 7.702599e-01 -7.792270e-01 -1.077186e-01 2.188791e-01 -2.640663e-01 -1.338847e+00 4.868479e-01 1.334987e+00 1.048397e+00 -9.835685e-01 -7.561912e-01 8.522382e-01 -1.421130e+00 1.079420e+00 6.120579e-02 -3.006015e-01 -4.159785e-01 1.626890e+00 2.217951e+00 -2.688511e-01 -9.798749e-01 -2.053745e+00 -6.617173e-02 -1.144538e+00 2.040092e+00 -1.303310e+00 2.139253e+00 6.880489e-01 8.860327e-01 4.364300e-01 -1.752795e-01 -5.689797e-01 9.538582e-01 -1.545080e+00 3.146301e-01 -9.870308e-01 1.362862e+00 -2.131716e+00 1.623522e+00 1.361538e+00 -4.535099e-03 2.305236e-01 4.489391e-01 -5.699538e-01 -7.269231e-01 -4.267391e-01 1.896661e+00 -5.275244e-01 3.308116e-01 -6.664745e-01 3.284752e-04 -1.971108e+00 -2.424662e-02 1.497363e+00 -1.411395e-01 5.365491e-01 -7.952273e-01 1.928432e+00 3.456367e-01 6.727675e-01 7.833186e-01 -3.561537e-01 -1.203351e+00 8.714498e-01 -1.899129e-01 4.222663e-01 8.769535e-01 -2.918235e-01 6.756068e-01 -1.660085e-01 -2.101107e+00 4.385285e-01 -7.858050e-01 -1.867634e+00 1.717092e-01 1.235475e+00 7.991044e-01 -1.019693e+00 6.094539e-02 7.396673e-01 -1.007300e+00 2.492205e+00 5.804019e-01 1.876485e-01 6.963798e-01 2.246154e+00 -9.809005e-02 -3.852332e-01 1.263302e+00 -6.542550e-01 -4.402823e-01 -1.272359e+00 5.142702e-01 5.309804e-01 2.042641e-01 2.623981e+00 -3.775045e-01 7.214708e-01 -8.021080e-01 -6.176476e-01 3.728012e-01 -8.389272e-01 3.814496e-01 -8.385948e-01 1.535023e+00 6.163658e-01 3.016247e-01 1.602620e-01 -1.603633e+00 1.658659e-01 -1.284390e+00 -1.311833e+00 3.949475e-01 -1.593107e+00 -1.155819e-01 -8.280061e-01 3.698075e-01 -6.359894e-01 -1.950625e-01 -6.014614e-02 6.612351e-01 -5.332771e-01 7.279888e-02 1.115005e+00 3.751522e-02 4.270426e-02 5.171605e-01 -2.871210e-01 -7.684110e-01 -5.731632e-01 1.779774e-01 1.139510e+00 1.101836e+00 -2.803140e-02 1.549298e+00 1.936689e-01 -8.174754e-01 -5.828185e-01 -7.597328e-01 -8.256619e-01 5.863274e-02 -1.176867e-01 9.224909e-01 1.097967e+00 -2.022600e-01 -7.082952e-01 -1.251297e-01 -2.778254e-01 -1.895943e-01 1.051287e+00 -4.128987e-01 -1.246772e-01 -2.461330e-01 9.694561e-01 6.460759e-01 2.660526e-01 -4.470816e-02 -7.438411e-01 -9.497006e-01 1.057010e+00 -6.454176e-01 -8.854388e-01 -2.214563e+00 -3.331856e-01 -3.226415e-01 -9.449959e-01 8.449989e-02 3.015799e+00 -1.347802e+00 1.592577e+00 9.742262e-01 6.333209e-01 1.007826e+00 -9.809201e-02 1.402208e+00 -1.082916e+00 1.470980e+00 7.593699e-01 -1.152577e+00 -4.795267e-01 -1.686448e-01 8.143629e-01 -1.353905e+00 1.100505e+00 -1.611673e+00 -1.541754e-01 6.685751e-01 7.424066e-01 1.409915e+00 5.130020e-01 -1.005764e-01 -1.134594e-02 -7.793954e-01 -6.883931e-01 -4.237901e-01 8.787118e-01 -1.478754e+00 -6.619430e-01 -5.946845e-01 -1.360706e-01 1.753937e-01 -2.184403e+00 4.442590e-01 5.376965e-01 -2.900405e-01 1.695607e+00 -1.597240e+00 4.080466e-01 1.411755e+00 -1.163014e+00 -3.564824e-01 5.296638e-02 -3.955894e-01 1.052663e+00 8.132692e-01 1.390157e+00 -1.450560e-01 1.410325e+00 3.452033e-01 -1.172030e+00 -8.166707e-01 -7.660824e-01 -4.711593e-01 7.987282e-01 2.303701e-01 -5.951485e-01 -1.081164e+00 -1.031636e-01 6.489610e-01 1.366199e-01 -1.072046e+00 -1.496564e+00 -1.221256e+00 -1.168958e+00 -2.531775e-01 -8.279417e-01 1.033242e+00 -7.919675e-01 3.607880e-01 3.136961e-01 -8.477129e-01 5.312483e-02 1.123237e-01 -2.028146e-01 -1.048660e+00 -4.630134e-01 2.244291e-03 9.836009e-02 1.334637e+00 1.647953e-01 8.962412e-01 -1.900721e+00 1.467868e+00 6.917887e-01 -9.238272e-01 -9.346308e-01 1.491093e+00 1.759364e+00 -1.334184e+00 -9.556376e-01 -3.044895e-01 -7.046148e-01 9.130598e-02 -2.151790e+00 -2.669692e-01 -2.437534e+00 -1.246445e+00 1.792748e+00 1.977326e-01 -1.637755e+00 -3.014382e-01 1.406005e+00 1.845108e+00 -1.743948e+00 -1.455435e+00 9.853441e-01 -4.801905e-01 -4.234783e-01 1.414896e+00 1.602751e-01 4.148231e-01 1.645464e+00 1.183316e+00 -1.265560e-01 -3.695732e-01 -2.927885e-01 7.211555e-01 -2.444641e-01 -8.324536e-02 2.048307e-01 1.820325e+00 6.819396e-01 -1.975430e-01 3.105739e-01 7.513028e-02 1.500968e-01 3.200899e-02 -3.033137e-02 -9.913587e-01 2.175038e-01 -2.957673e-01 6.579247e-01 1.018963e+00 -1.486220e+00 1.830494e-01 -1.282971e+00 -1.796133e+00 5.029526e-01 4.804216e-01 5.767855e-01 -5.881118e-02 1.423738e+00 -6.374974e-01 3.931208e-01 -2.358838e-01 -1.213114e+00 -2.009110e+00 9.944552e-02 8.199004e-01 -2.106437e-01 1.626940e+00 1.337848e-01 3.332436e-01 7.330217e-01 6.523479e-03 -3.731982e-01 4.205532e-01 1.695474e+00 1.057356e-01 -2.871738e-01 -9.934410e-01 -1.131022e+00 1.531324e+00 -1.749285e+00 1.564250e+00 -1.194229e+00 -1.071210e+00 -6.150310e-01 6.558273e-01 -3.559924e-01 -9.801296e-01 -1.294305e-01 8.319734e-01 -1.509960e-01 -3.484085e-01 1.126185e+00 2.610781e-01 -2.007915e+00 -4.651415e-01 1.693524e-01 -3.463109e-03 -1.984268e-01 1.386716e+00 9.538892e-01 9.084516e-01 1.207034e+00 1.349478e+00 4.951281e-01 -2.383296e+00 2.604698e-01 1.648056e-01 -6.877423e-01 8.829357e-02 -2.040207e-01 4.368511e-01 1.302328e+00 -1.832522e-01 -1.440841e+00 6.981040e-02 6.351496e-01 6.737396e-01 -5.796360e-01 -5.672431e-01 5.725249e-01 3.704003e-01 -2.297399e+00 -1.275471e+00 1.882026e+00 2.125077e-01 3.714403e-01 -2.916069e-01 -2.389977e-02 -5.002821e-01 7.084823e-01 -4.096983e-01 4.004910e-01 -2.790837e+00 -8.770341e-01 5.367028e-02 -1.907637e-01 -3.121832e-01 1.544000e-01 7.083350e-01 9.930784e-01 1.877804e+00 -6.880038e-01 1.685385e-01 -2.058884e+00 9.912304e-01 3.025611e+00 6.865721e-01 7.493343e-01 3.306385e-01 1.392125e-01 1.102397e+00 4.316766e-01 -5.032871e-01 4.310367e-01 1.111362e+00 -1.215008e+00 -5.993195e-01 -3.216645e-01 -4.859565e-01 1.041363e+00 5.778444e-01 -1.953774e+00 1.195267e+00 -4.881670e-01 -2.799182e-01 -1.825366e-01 1.459213e-01 1.285731e+00 1.981449e-01 1.000692e-01 -8.044120e-01 1.684822e+00 1.385128e+00 1.479334e+00 8.490072e-01 1.482304e+00 -1.330387e+00 -1.438691e+00 -7.557701e-01 1.715675e+00 -1.453722e+00 -1.316754e+00 1.289158e+00 -5.165919e-01 -1.260446e+00 1.339277e+00 6.536665e-01 2.766844e-02 7.603893e-01 -6.926567e-01 8.085061e-01 -6.246927e-01 4.461998e-01 8.153947e-01 -1.104822e+00 -1.422355e+00 1.337458e+00 -7.773234e-01 8.285702e-01 4.770911e-01 -1.166219e+00 3.471434e-01 -3.117311e-01 2.125296e-01 -1.478925e-01 1.614535e+00 4.548257e-01 -5.091551e-01 -2.249346e-01 -1.406231e+00 -1.106812e-01 4.958220e-01 7.187632e-01 5.252957e-01 -4.534738e-01 -9.304844e-01 5.146048e-02 -3.837428e-01 1.718741e+00 -9.157768e-01 -1.450313e-01 -1.409406e+00 -4.811184e-02 -5.917612e-01 -1.884500e+00 4.791253e-01 -7.047060e-01 -1.183309e+00 2.169750e+00 2.224750e+00 -6.177280e-01 1.488366e-01 -2.848897e-01 1.571607e+00 -7.655220e-01 4.498028e-01 -3.368104e-01 -3.699962e-01 1.167817e+00 -1.052107e+00 7.999198e-01 -2.041583e+00 -2.954439e-01 4.719232e-01 -1.013399e+00 -6.974062e-01 -7.145479e-01 -1.121781e+00 -1.935394e+00 -2.367498e-01 -6.938729e-01 9.000661e-02 6.642842e-01 1.154620e+00 -4.066341e-01 1.197157e+00 3.988958e-01 -9.552591e-01 -2.501364e+00 4.367127e-01 -8.149399e-01 4.301938e-01 -6.070145e-01 1.929234e+00 -2.462259e-01 -2.153038e-01 -5.794233e-01 -9.481577e-01 1.259684e+00 1.535304e+00 5.148143e-02 -8.135407e-01 -2.111590e-01 1.313263e+00 -1.565282e-01 7.058806e-01 -3.085012e-01 -1.046013e+00 2.451577e-01 1.209241e+00 -5.123783e-01 -1.359545e+00 -1.580996e+00 -3.562351e-01 -2.702693e-02 1.199230e+00 -2.718539e-01 -6.120854e-01 -1.371816e+00 -1.334079e-01 -1.177402e+00 2.258211e-01 -3.673790e-02 2.094780e+00 1.996813e-01 1.092858e-02 -2.577460e-01 -1.435292e+00 -6.756746e-02 7.076392e-01 -1.224030e-01 3.927817e-02 -5.577560e-01 -1.009706e+00 -3.534759e-01 -3.128664e-01 -7.531251e-01 -1.204387e+00 2.574077e-01 -4.499078e-01 9.602965e-01 -3.186477e-01 -3.257371e-01 4.311222e-01 5.229932e-01 3.770517e-01 9.872553e-01 2.187055e-01 -1.011849e+00 6.876453e-01 -1.480472e+00 -6.882758e-01 -4.828329e-01 3.696885e-01 2.153438e-01 1.407908e-01 5.888679e-01
-1.217746e+00 5.364998e-01 -5.214561e-01 5.860405e-01 -2.692748e+00 1.729832e-02 -8.324974e-01 9.471147e-01 -1.137095e+00 3.630796e-01 -1.689121e-02 -2.315903e+00 -5.978243e-01 1.021053e+00 2.354720e-01 1.605839e-01 -1.997955e-01 3.233643e-01 -1.132781e-01 -7.514006e-01 -2.736341e-01 7.176179e-01 -7.204154e-01 5.458136e-01 8.067080e-02 9.615049e-01 -2.908802e-01 -3.444048e-01 6.348868e-01 1.240562e+00 -7.294893e-01 -9.527959e-02 4.048764e-01 8.383442e-01 8.136507e-01 1.945452e-01 1.939741e+00 5.328095e-02 -1.262106e+00 2.059409e+00 -3.075318e+00 2.028285e+00 6.264688e-01 1.063196e+00 1.389428e+00 -4.785162e-01 2.261697e+00 1.022488e-01 -1.633299e+00 1.590414e+00 -2.439275e-01 -8.941469e-02 7.296589e-01 -5.991087e-01 -4.400560e-02 8.182328e-01 -3.788748e-01 1.479789e+00 -4.191648e-02 -6.696039e-01 6.258638e-01 -8.561775e-01 -1.457565e-01 1.686236e+00 6.403685e-01 -2.053381e+00 -6.586257e-01 -6.067226e-01 7.064702e-01 4.489950e-01 -2.948311e-01 -9.619185e-01 -1.137621e-01 2.684009e-02 -4.724160e-01 1.347197e+00 1.403082e-01 -9.607311e-01 1.800245e+00 1.238664e+00 -4.356548e-02 -1.501165e+00 3.708510e-01 -6.458809e-01 -2.257207e-01 3.510854e-01 -1.837989e+00 2.131456e-02 -1.248759e+00 -1.004888e+00 7.743428e-01 8.905293e-01 -1.560871e+00 2.032027e+00 -1.163033e+00 -5.795475e-02 -1.169108e+00 6.513190e-01 -1.746124e-01 -9.748271e-02 -1.948661e+00 2.172602e+00 -2.191138e-01 -1.220411e+00 3.919809e-01 -9.193464e-01 1.626733e+00 -8.992988e-01 -6.587572e-01 1.687151e-01 -3.311480e-01 -2.866452e-01 -2.253912e-01 8.065167e-01 -4.617254e-02 -8.188260e-01 1.297498e+00 3.430545e-01 -2.470100e-01 7.113956e-01 1.043357e+00 3.641834e-01 1.336872e+00 1.208440e+00 2.761258e-01 -1.297486e-01 -1.058817e-01 6.710864e-01 1.195258e+00 -3.681742e-01 1.079913e-01 -9.597084e-01 1.132033e+00 9.557918e-01 6.800381e-01 -2.074952e-01 9.306220e-01 -6.830796e-01 -2.980174e-01 6.134173e-01 -5.985081e-01 -1.066673e+00 1.145851e+00 -3.286228e-01 1.411816e+00 1.648938e+00 -1.844419e-01 -1.356515e+00 -8.519520e-01 5.285886e-03 3.356227e-01 -4.617690e-01 -2.017493e-02 -2.346523e-01 -9.241004e-01 -3.900128e-01 -8.793993e-01 -7.621616e-01 5.186853e-01 6.644129e-01 1.469842e-01 -5.355183e-01 9.220114e-01 1.091839e-01 1.872748e+00 2.106314e+00 -9.432641e-01 3.955230e-01 -1.682159e+00 -1.007327e+00 -5.697345e-01 1.231615e-03 3.253634e-01 -1.991105e+00 9.766705e-01 -1.282835e+00 -1.094701e+00 1.765476e+00 2.419019e-01 1.429883e+00 -4.466963e-01 4.272255e-01 5.936842e-01 -7.569245e-01 1.456749e-01 -1.510972e+00 -9.615134e-01 1.018507e+00 7.313458e-01 -9.780144e-01 4.340842e-01 1.387847e+00 5.817245e-01 2.263453e-01 1.435823e-01 -1.305200e-01 -1.013195e+00 -5.774059e-01 1.334197e+00 3.869752e-01 2.186385e+00 -4.615348e-01 -1.520504e+00 7.974658e-01 -1.352262e+00 4.713528e-01 6.776596e-01 -1.882934e-01 -1.037627e+00 -9.768438e-01 -3.240363e-01 1.579486e+00 -1.864386e-01 -4.740803e-01 1.294509e-02 -1.091363e+00 -1.377392e+00 -6.613592e-01 -5.052567e-01 1.110253e+00 1.674129e-01 -1.359599e+00 1.950091e+00 3.759956e-01 -4.901908e-01 3.411136e-01 1.616807e+00 -1.463837e+00 1.413430e-01 -2.517383e-01 -7.354231e-01 -3.380412e-01 9.370033e-01 1.640576e+00 1.362362e-01 -1.030287e-01 -4.457959e-02 1.285799e+00 -2.825552e-01 1.461160e+00 7.175176e-01 -1.182530e+00 -3.304570e-01 -9.690701e-01 -8.700103e-01 -7.099115e-01 -8.509199e-01 -5.182089e-01 1.074167e+00 -5.843369e-01 -2.796182e-01 -7.065122e-02 -4.342954e-01 2.479117e-01 -4.464315e-01 -6.256914e-01 1.736072e-01 -2.594766e-01 1.424672e+00 4.723169e-01 -1.664506e+00 -3.671044e-01 5.742396e-01 -6.482571e-01 8.704686e-01 1.109010e+00 9.237490e-01 -8.432607e-01 -2.519490e-01 -9.178213e-01 -8.410477e-01 1.167974e+00 -1.340450e+00 3.686987e-02 3.759664e-01 -1.227713e+00 -1.921310e-01 1.448989e-01 1.024119e+00 1.217296e+00 -1.859549e-01 -1.053521e+00 1.295338e+00 2.110318e+00 -4.583008e-01 9.880908e-01 -1.341719e+00 2.073517e-01 6.198223e-01 3.856703e-01 8.968804e-01 -9.032406e-01 -9.964877e-01 -5.336290e-01 1.139546e+00 1.103516e+00 -3.349438e-01 5.527052e-01 -3.424482e-01 1.577930e+00 2.466717e-01 9.174637e-01 -1.126086e+00 2.032799e+00 -3.132965e-01 1.965628e-01 -2.716520e-01 -1.159996e+00 -2.669987e-01 -1.474625e+00 -1.044861e+00 -1.899751e-01 -4.683670e-01 -6.028299e-01 8.762804e-01 -6.905514e-01 6.738893e-03 -1.829543e+00 -6.114919e-01 1.193647e-01 5.802261e-01 -8.863695e-01 9.931513e-01 1.675971e+00 8.785465e-02 -3.216238e-01 -1.270186e-01 -1.841075e-01 5.623072e-01 2.905371e-01 -5.585210e-01 -2.317600e+00 9.183096e-01 5.789209e-01 -2.295455e-01 -1.819023e+00 -3.457832e-01 4.539744e-01 -2.513907e+00 4.995373e-01 -1.434858e+00 7.041152e-02 6.607220e-01 -7.471008e-01 2.018801e+00 1.009002e+00 -7.238650e-01 2.767487e-01 3.150565e-01 1.681088e+00 -7.506920e-01 -2.826438e+00 -5.278513e-01 -3.143563e-01 -6.466182e-01 6.457681e-01 -6.425219e-01 1.765180e+00 1.061380e+00 1.058947e+00 -1.388256e+00 -2.172172e-01 -7.016801e-01 -4.144975e-01 -5.020544e-01 -3.655492e-01 -1.237257e+00 1.214565e+00 -2.672713e+00 -3.421628e-01 -1.395027e+00 -4.920485e-01 3.377080e-01 1.896228e+00 -2.748206e-01 -1.262490e-01 -3.125724e-02 -6.457755e-01 -1.552618e+00 -1.035151e+00 -1.992239e+00 -1.550826e+00 2.193975e-01 2.125153e-02 1.115520e-02 -1.086008e+00 5.863497e-01 -1.810173e+00 1.266020e+00 2.451406e+00 -1.669323e+00 -1.434241e+00 -9.115749e-01 5.117554e-01 4.458802e-01 1.694155e+00 1.306917e+00 -1.387474e-01 1.228166e+00 -5.301242e-01 1.494559e+00 -5.056488e-03 1.549600e+00 -5.192542e-01 -1.594970e-01 3.494647e-02 1.027906e+00 -4.472928e-01 2.321759e-01 -1.702292e-01 -2.343730e-01 -8.589148e-01 -1.853477e+00 -2.176657e-01 -1.140603e+00 6.896298e-01 -3.824143e-01 1.325746e+00 2.442899e-01 -1.840904e+00 -8.227865e-02 5.258432e-01 2.777444e+00 5.936652e-01 -1.808055e+00 -4.133273e-02 -9.869403e-03 1.872227e+00 1.757897e+00 -1.248506e+00 -1.774657e-01 -8.893557e-03 2.196523e-01 -5.384336e-01 -1.086925e+00 4.719086e-01 3.025115e-02 -1.359931e+00 6.953163e-01 6.812524e-01 2.921936e-01 -2.292079e-01 -7.778262e-01 9.577504e-01 -2.372275e+00 2.718730e-01 -8.193875e-02 -2.249962e-01 -3.694404e-01 -3.762894e-01 1.197095e+00 9.377426e-01 -5.977873e-01 -4.884546e-02 -3.196805e-01 -4.036608e-03 -3.743252e-01 2.087668e+00 -1.456557e+00 6.942031e-01 1.765644e+00 2.120225e+00 -5.186031e-01 -5.885503e-01 -1.679291e-02 -2.758292e-01 -1.067047e+00 -1.198765e+00 6.699603e-01 -5.044549e-01 -2.316188e-01 1.591505e+00 -9.133640e-01 -1.239754e+00 -4.081995e-01 2.168393e-01 -1.680715e+00 -2.765512e-01 7.110458e-01 9.056707e-02 9.884185e-01 -1.948742e-01 7.482483e-01 -1.613589e-01 -8.833985e-02 -2.285179e-01 -7.466265e-01 -6.038476e-01 1.427132e-01 -3.814775e-01 1.124902e+00 9.283956e-01 1.037504e+00 -2.209397e-01 1.736401e+00 -1.133715e+00 4.003076e-01 -1.544442e+00 5.731818e-01 -5.421985e-02 7.370340e-01 1.225873e+00 -7.617285e-01 9.386546e-01 1.145840e+00 7.925709e-01 -6.940822e-01 1.434350e+00 -8.937302e-01 -3.139899e-01 9.650682e-01 -1.257625e+00 8.794874e-01 7.313849e-01 -1.912221e+00 9.967624e-01 5.682325e-02 2.211527e+00 -1.245948e+00 -1.239873e+00 -5.126116e-01 1.042012e+00 7.532710e-02 7.514232e-01 5.804536e-01 7.188298e-01 -1.609245e+00 -1.445037e-01 -1.021295e+00 3.029416e-02 -8.193338e-01 6.032103e-01 -6.830170e-01 2.473952e-01 3.263273e-01 8.285713e-02 9.545105e-02 -8.709704e-01 4.558967e-01 -3.823931e-01 -1.902430e+00 -2.028258e-01 1.269663e+00 8.251504e-01 -1.856579e+00 -8.878160e-01 -1.723336e+00 -2.425810e+00 3.428731e-01 -4.933229e-02 -6.360502e-01 -1.573191e+00 7.332025e-02 1.757814e+00 6.234539e-01 8.070262e-02 1.326168e+00 -7.411334e-01 7.456250e-01 -4.104781e-02 1.609587e+00 -8.178594e-01 -2.496097e-01 4.830493e-01 1.073309e+00 6.430530e-01 1.446873e+00 6.462678e-01 1.075391e+00 -2.235029e-02 -6.108437e-01 -4.107934e-01 1.101309e+00 -3.637810e-01 -8.354804e-01 5.268230e-02 1.836143e+00 -7.104330e-01 -6.226627e-01 3.549429e-01 -7.120319e-01 -3.242425e-01 -1.303822e+00 -2.637978e+00 3.432567e-01 -7.289611e-02 -1.358828e+00 -1.496712e+00 -8.664699e-01 -2.920363e-01 -6.140677e-01 7.720570e-01 2.237503e-01 3.686318e-01 1.183934e-02 8.004499e-01 1.974772e-01 -8.652626e-01 -1.345004e+00 2.244652e+00 5.280434e-01 -9.626284e-01 -1.315658e+00 3.743318e-01 1.927934e+00 1.564965e+00 -3.747633e-01 1.304582e+00 9.761991e-01 -1.042905e+00 2.102211e+00 1.646256e+00 6.918254e-01 1.151793e+00 3.644291e-01 1.604593e+00 6.239875e-01 1.374535e-01 6.826466e-01 -6.778189e-01 4.374331e-01 -1.218484e+00 -1.044516e-01 1.007057e+00 2.180178e-01 1.650996e+00 2.401761e-01 -5.297070e-01 -8.051113e-01 1.545769e+00 -3.968662e-01 -7.291802e-01 -1.142125e+00 7.042866e-01 -5.080687e-01 -9.167294e-01 -4.040121e-01 1.083625e+00 2.217642e+00 -1.446185e-01 -5.884877e-01 -1.016260e+00 4.105617e-01 9.448580e-01 5.580738e-02 1.375947e+00 6.624197e-01 1.006744e+00 -1.313137e+00 1.119090e+00 -7.676582e-01 7.440431e-01 5.321348e-01 -5.523612e-01 -6.828423e-02 -5.022207e-01 1.423366e+00 6.281014e-01 -1.851054e+00 -1.199059e-01 -1.870097e+00 2.986070e-01 6.395261e-02 -1.671184e+00 -1.895608e+00 -2.031929e-01 -2.078146e-01 -9.149375e-01 -6.447671e-02 -2.003760e-01 -3.696089e-01 7.045524e-01 -1.610669e+00 6.098131e-01 1.745310e-01 2.266619e+00 1.034448e-01 8.194370e-01 -9.713741e-01 -9.573495e-01 6.704927e-01 3.758911e-01 3.653071e-01 1.478561e+00 5.944193e-01 -7.105292e-01 -7.716479e-02 -7.213429e-03 9.356895e-02 4.257872e-01 -1.652540e+00 1.293793e+00 -1.566290e+00 -1.619700e-01 -6.719904e-01 1.310124e+00 -4.474696e-01 5.725646e-01 -7.341767e-01 9.637210e-01 5.296258e-01 1.235033e-02 1.553258e+00 9.196318e-01 -1.229122e+00 -4.490534e-01 -2.325495e+00 3.940077e-01 -1.071465e+00 4.902987e-01 -3.313298e+00 3.525147e-02 -1.196549e+00 5.196644e-01 -2.623211e-01 -9.876959e-01 6.368835e-01 -9.809375e-01 -6.075406e-01 -1.336902e-01 -4.892455e-01 -2.115835e-01 1.984878e+00 -8.247297e-01 5.594569e-01 -9.994283e-01 -1.692665e-01 -1.750527e+00 2.001729e+00 2.709117e+00 6.929028e-01 -2.459675e-01 -3.556104e-01 -1.053729e+00 6.834584e-01 -1.717916e+00 5.767255e-02 -2.927212e-01 1.618783e+00 5.896154e-01 -7.745978e-01 2.683230e-01 1.532730e+00 -8.295621e-01 5.191033e-01 -1.029449e-01 1.504892e+00 -1.339748e+00 -1.137591e+00 7.169604e-01 3.800192e-01 -5.999586e-01 -6.265843e-01 -1.175975e+00 8.299859e-03 -4.144120e-01 3.006354e-01 1.289875e+00 2.196873e+00 4.973031e-01 -3.784328e-01 7.700708e-01 -5.767421e-01 2.862172e-01 9.438811e-01 7.141601e-01 -1.443966e+00 6.832803e-01 -8.216978e-01 -9.759317e-01 -8.913016e-02 4.284363e-01 -1.644956e-01 -1.593564e+00 -9.704277e-01 -1.288111e-01 6.213218e-02 -2.298392e-01 1.548948e-01 -1.929215e-01 8.797638e-03 -2.947238e-01 2.054122e+00 -1.941809e-02 8.643775e-02 -4.414478e-01 -1.782147e-01 9.707099e-01 1.698058e-01 1.419348e-01 1.170890e+00 -2.673294e+00 -5.480020e-01 2.658534e-01 6.114275e-02 -6.622556e-01 -9.089873e-01 5.657513e-01 -1.557876e+00 -7.184797e-02 -2.347790e-01 -1.445721e+00 -1.599502e+00 1.077111e+00 1.071366e+00 -7.128785e-01 5.350884e-01 3.504352e-01 -3.740600e-01 -2.528665e+00 -1.605471e+00 6.633421e-01 -3.659793e-01 1.719906e+00 3.217532e-01 2.011226e+00 1.002873e+00 3.402354e-01 7.661602e-01 -5.858427e-01 1.146315e+00 7.761630e-01 -1.179626e+00 1.827017e+00 2.901728e-01 1.213688e-01 1.179799e-01 3.100345e-02 -2.389937e-01 8.383243e-01 -4.785099e-01 -1.900887e-01 3.165103e-01 2.431410e+00 -5.032544e-01 -1.375814e+00 -1.182147e+00 -1.080877e+00 -8.760295e-01 -7.257236e-01 3.285076e-01 -1.710075e+00 -1.341355e+00 -1.199594e+00 1.967552e-01 1.144639e+00 8.556668e-01 -3.048407e-01 -1.084784e+00 -2.676424e-01 -2.059178e-01 -3.927577e-01 2.001388e+00 2.945689e-01 -7.310675e-01 1.538734e-01 2.232600e-01 1.112148e+00 -9.298606e-02 -4.232854e-02 1.234768e+00 -1.277647e+00 1.238913e+00 -2.566436e-01 4.369576e-01 -1.482838e-02 -6.258647e-02 3.605851e-01 7.105093e-01 -5.630817e-01 6.855836e-01 -4.477037e-01 -2.092848e-01 1.578269e+00 2.875291e-01 3.164921e+00 4.498416e-01 5.390566e-01 -2.152929e+00 -4.508203e-01 5.388067e-01 -1.492405e+00 -3.397156e-01 3.926160e-01 9.907132e-01 6.379786e-01 -1.148518e-01 -3.109466e-01 -4.721487e-01 -1.267046e+00 2.422795e-01 -7.974054e-01 -1.064064e+00 -6.054078e-01 -1.857538e+00 -4.439708e-01 1.532836e+00 1.990031e-01 1.177543e+00 -1.106573e-01 -1.055646e+00 -1.972911e+00 7.912913e-02 -4.230296e-01 3.219465e-01 -2.703395e-01 -4.929771e-01 -4.920001e-01 3.798850e-02 -4.859090e-01 -1.396928e-01 5.218091e-01 7.692377e-01 7.514270e-01 -3.962131e-01 -2.672868e+00 1.233447e-01 -7.601528e-01 -1.358869e+00 -9.127560e-02 -9.650215e-01 -3.808832e-02 1.016164e+00 -8.136094e-01 -1.632646e+00 2.700532e-01 7.100044e-01 8.718864e-01 8.448957e-01 -2.568258e-01 -2.100693e-01 -2.238508e+00 9.971518e-01 2.229397e+00 5.183612e-01 1.589697e+00 1.539127e+00 5.518622e-01 1.157148e+00 3.384787e-01 1.186570e+00 5.122201e-01 4.417496e-01 -3.836221e-01 3.505867e-01 8.525970e-01 3.508047e-01 -1.234803e+00 3.943491e-01 5.641149e-01 6.641748e-01 -3.757661e-01 2.311612e-01 -1.152534e+00 -8.040779e-01 7.179902e-01 -7.213445e-01 1.220374e+00 1.149053e+00 -8.684132e-01 -1.207526e+00 -4.023583e-01 4.218344e-01 1.297117e+00 4.104294e-01 -8.241695e-01 8.823657e-01 -6.243771e-01 8.976075e-01 -1.531262e+00 -7.390838e-01 -1.548187e+00 -7.767841e-01 6.231532e-01 -5.661713e-01 1.364208e+00 -1.817084e-01 1.521439e+00 7.201234e-01 -2.979947e-01 -8.080904e-01 8.247186e-01 1.027090e-01 -8.073667e-01 -1.414698e+00 -8.513224e-01 -6.702500e-01 -1.092748e+00 -1.281061e-01 4.223322e-01 6.042262e-01 -1.200811e-01 7.570050e-01 -1.233418e+00 6.530195e-01 9.387977e-01 -7.585390e-01 -3.266141e-01 -2.575385e+00 1.132914e+00
-1.126679e-01 2.124366e+00 -1.856646e-02 -3.075400e-01 2.990785e-01 -1.421752e+00 -4.612280e-01 9.072584e-01 -1.719477e-01 6.579142e-01 -6.924387e-01 1.652376e+00 3.754125e-01 -6.859166e-01 3.777505e-01 5.843931e-01 -5.909865e-01 3.206468e-01 -5.785258e-01 9.090862e-01 1.583303e+00 -1.979915e+00 7.475951e-01 1.245010e+00 -1.911665e+00 9.245185e-02 -8.209722e-01 1.068247e+00 4.633444e-01 -7.959416e-01 5.072043e-01 6.074595e-01 1.377568e+00 1.015258e+00 2.775759e-01 8.804272e-01 -6.857797e-01 -8.670111e-01 1.163325e+00 -9.604077e-01 -1.278020e+00 4.470151e-01 -1.667420e+00 -1.082460e+00 -1.485446e-02 -1.790806e-01 4.943001e-01 1.592744e+00 2.913438e-01 3.027359e-01 6.238979e-01 -3.965561e-02 5.709784e-01 6.940905e-01 -1.121309e+00 -1.053664e-01 1.219300e+00 1.138456e+00 -4.896824e-01 -8.474143e-01 3.315051e-01 -3.496927e-01 -1.649012e+00 -2.047165e+00 -2.094948e-01 -1.838155e-01 1.562912e+00 5.448017e-01 -1.268106e+00 -2.371930e+00 5.568364e-01 7.448332e-01 -1.102111e+00 -7.196782e-01 -9.686364e-01 7.076486e-04 -1.387454e+00 1.354243e+00 5.670537e-01 1.143776e+00 8.379853e-01 2.051910e-01 5.239379e-01 2.477872e+00 -9.428025e-01 -4.383145e-01 2.690895e-01 -3.007741e-01 -8.103944e-01 -6.702436e-02 5.343400e-01 -1.318079e+00 1.276326e+00 2.559476e-01 4.260654e-01 7.342911e-01 6.157511e-01 -5.331965e-01 -2.080961e+00 4.269252e-01 -5.125094e-01 1.923818e+00 -2.041245e-01 5.355906e-01 8.501534e-01 -3.400868e-01 -1.670799e+00 -2.017825e+00 9.738745e-01 -2.631392e-01 -1.252532e+00 -1.626143e+00 -6.739480e-01 -2.470961e+00 2.484444e-02 -1.240698e+00 1.109536e+00 -1.977804e+00 8.177490e-01 -8.248133e-01 8.718255e-01 3.966732e-01 1.114610e+00 -2.551713e-01 -2.154905e-01 1.693200e-01 -6.385177e-01 5.024738e-01 1.840071e-01 -1.522653e-01 -6.571203e-01 2.879875e-01 1.246573e+00 -3.372335e-01 1.170724e-01 1.505417e+00 8.205764e-01 -1.185346e+00 -3.321699e-01 -9.864099e-01 -3.285552e-01 1.766822e+00 -5.484995e-01 4.382994e-01 2.699903e-01 -1.527285e+00 2.912930e-01 -1.559463e+00 5.724094e-01 -4.496131e-01 -1.398071e-01 1.375031e-01 -6.132284e-01 -8.059493e-01 4.440418e-01 7.026405e-01 6.105006e-01 -5.204259e-01 -4.235774e-01 -2.698503e-02 6.974247e-01 -4.920602e-01 -7.611442e-01 5.077217e-01 -2.098493e-01 1.888955e+00 1.001617e+00 -1.679785e+00 6.977461e-01 1.035989e+00 3.522004e-01 4.886684e-01 9.585782e-01 -1.239897e+00 -9.122636e-01 1.147677e+00 -9.745779e-01 -5.547196e-01 1.427933e-01 -1.288189e+00 -1.119505e+00 -1.129351e+00 -6.478022e-01 1.296578e+00 9.161505e-01 -2.067914e-01 1.027114e+00 -3.593948e-01 1.131934e+00 1.031466e+00 -1.391322e+00 4.515504e-02 1.137114e-02 -1.866487e-01 1.041033e+00 -2.245972e-01 2.337500e+00 -8.387148e-01 -5.260406e-01 1.461541e-01 1.196217e+00 1.752568e-01 1.256403e+00 -9.862748e-01 6.634350e-01 3.094327e-01 -1.144980e+00 8.083722e-01 -1.536403e-01 3.601221e-01 8.617510e-01 -2.417621e-01 -5.499423e-01 -6.268378e-01 -3.326365e-01 9.320690e-01 3.256070e-02 -5.533614e-01 -9.744960e-01 9.337149e-01 2.186541e-01 4.991354e-01 1.802275e+00 1.102530e+00 -1.435955e+00 2.652336e-01 7.676105e-01 8.286426e-01 -9.255517e-01 -6.837108e-01 7.684188e-01 -6.487694e-01 1.468038e-01 1.227618e+00 -1.889718e-01 1.037653e+00 3.790362e-01 -1.840010e-01 1.992522e+00 2.634116e+00 7.107696e-01 1.026696e+00 -4.406061e-03 1.305896e+00 -2.356029e+00 3.640454e-01 -8.608476e-01 -8.201769e-01 -8.914878e-01 -1.190949e+00 9.230214e-01 3.672725e-02 -5.548828e-01 9.822861e-01 -1.054830e+00 3.870828e-01 -5.903786e-01 8.912295e-02 -1.153637e+00 2.002411e+00 -1.301589e+00 9.337720e-01 -1.029107e+00 1.396403e+00 1.973468e-01 -1.768157e+00 -1.353445e-02 5.216163e-01 2.591331e+00 -1.489269e+00 6.594618e-01 -1.800169e-02 4.976669e-01 2.307726e-01 2.525910e+00 5.238131e-01 1.476644e+00 -7.518220e-01 5.396078e-01 1.223018e-01 1.454052e+00 3.910006e-01 -1.391326e-01 1.688751e+00 3.166496e-01 -1.060891e+00 -1.161012e-01 -1.929786e-01 2.571264e+00 -2.371549e+00 3.147912e-01 -3.064088e-01 2.401622e+00 2.462722e-01 -5.078440e-01 8.873213e-01 -4.460848e-01 8.812761e-01 -2.650781e-01 1.076574e+00 -2.894637e-01 9.808505e-01 7.384259e-02 1.925666e-01 -4.024297e-01 1.146815e-02 1.122685e+00 -6.526450e-01 4.671343e-01 1.674023e-01 -6.340673e-01 -2.611466e-01 5.332508e-02 -1.612416e+00 -2.188071e-01 4.379738e-01 1.014193e+00 4.529191e-01 -1.259387e+00 2.250105e-02 3.416857e-01 2.809899e-01 -6.349277e-01 5.972241e-01 -1.089453e+00 -1.514484e+00 -9.375847e-01 -1.220741e+00 2.487700e+00 -6.649239e-01 -5.665497e-01 1.503280e+00 5.501436e-03 5.564343e-01 -7.328758e-01 2.006677e-01 1.781847e-01 -8.980795e-01 1.612956e+00 1.765649e+00 5.655348e-02 1.214758e+00 -1.267264e+00 1.088788e+00 -1.366378e+00 -1.816925e+00 -8.223987e-02 7.565229e-01 -3.843883e-01 -3.748065e-01 -1.552792e+00 8.722709e-01 -2.169993e-01 5.297648e-01 -2.952838e-01 -1.584720e+00 -6.745034e-01 1.238488e+00 7.043194e-02 -5.122610e-01 1.727700e+00 -1.152394e+00 -1.261406e+00 -1.926979e+00 -3.264974e-01 2.246575e-01 2.277029e-01 -1.779782e+00 -7.352216e-01 -1.227146e+00 -1.752698e-01 7.758666e-01 1.027934e+00 -1.529172e+00 5.416371e-01 -9.046234e-01 -7.450533e-01 2.922339e-01 7.167245e-01 -2.303581e+00 1.042012e+00 -1.074289e+00 -9.484399e-01 -7.826444e-01 4.979268e-01 -1.961646e-01 -5.268707e-01 4.154226e-01 2.885990e-01 1.164518e+00 1.099357e-01 1.668043e+00 8.966933e-01 5.864577e-03 8.803510e-02 -3.533292e-01 2.501778e-01 -9.371279e-01 -1.854278e+00 9.768195e-02 2.219749e+00 1.158625e+00 -5.497818e-01 -5.702292e-01 5.711505e-01 5.856280e-02 1.290582e+00 3.346665e-01 2.655267e-02 1.191280e+00 4.675610e-02 9.797431e-01 1.165820e+00 1.122518e+00 -2.057205e+00 -1.838695e-01 -9.138032e-01 -4.236518e-01 -1.158264e-01 -1.120425e+00 9.644688e-01 -4.862864e-02 1.082985e+00 8.806449e-01 -9.055809e-02 -8.354404e-01 6.073373e-01 -8.785245e-02 2.808723e-01 -2.229798e-01 5.907504e-01 -4.737590e-01 1.799809e-01 1.377261e+00 5.698024e-01 -3.478895e-01 3.991766e-02 -3.731142e-01 -7.220864e-01 -4.475958e-01 -1.039338e+00 1.902886e+00 5.546733e-01 4.337555e-01 -1.212479e+00 -6.331053e-01 9.883692e-01 2.549544e-01 1.798161e+00 1.115146e+00 -3.195714e-01 3.784350e-01 -2.360846e+00 -7.861462e-01 -8.965666e-01 1.451540e-01 -1.191065e+00 -5.131394e-02 1.566525e+00 1.168800e+00 4.318037e-01 1.611508e+00 -4.185010e-01 8.440188e-01 -8.857506e-01 3.625809e-01 5.937018e-01 1.451233e-01 3.532817e-01 1.008480e+00 1.407524e+00 1.222755e-01 1.885308e+00 -4.813959e-01 7.030590e-01 1.525799e+00 2.197606e-01 1.364431e+00 -7.022397e-02 1.369749e-01 1.322906e+00 -9.307736e-01 5.320004e-01 3.768487e-01 9.819323e-01 -1.692050e-01 -4.357631e-02 -9.574154e-01 -1.287662e+00 7.132610e-01 -5.666883e-01 7.761100e-01 5.586960e-02 2.986079e-01 -2.180320e+00 2.265099e-01 -8.626301e-02 -1.148782e+00 7.074756e-01 1.318434e+00 -3.684542e-01 1.351360e+00 1.030860e-02 1.686111e-01 2.026398e-01 8.650303e-01 1.656590e+00 4.368409e-01 1.069107e+00 -6.205359e-02 -3.056508e-02 6.005199e-01 1.320327e-01 6.455968e-01 1.782398e+00 5.838682e-01 1.174559e+00 -1.361775e-01 9.732579e-01 8.526520e-01 -9.213046e-01 2.251086e-01 1.761174e-01 -4.822798e-01 2.625084e-01 8.214120e-01 -1.718562e+00 -3.438788e-01 8.512701e-03 7.206607e-01 -1.230583e+00 6.818993e-01 2.806684e-01 1.817841e+00 6.237786e-01 3.854862e-01 1.945218e+00 4.766161e-02 -9.002111e-01 -1.524528e-02 2.787002e-01 -2.123232e-01 1.601887e-01 -1.786332e+00 -3.542402e-01 6.021399e-01 1.332978e+00 1.384314e+00 -3.405813e-01 7.488460e-01 -7.967376e-01 -3.992721e-02 1.168018e-01 1.149972e+00 2.675951e-02 -6.381703e-01 2.113777e-01 1.400743e-01 7.438752e-01 -1.065525e+00 -1.394667e-01 -9.839002e-01 1.442780e+00 -1.247692e+00 -1.666811e+00 -1.584424e-01 8.409184e-01 -2.609665e-01 -1.791217e+00 2.500793e+00 3.811843e-01 7.887842e-01 -1.299323e+00 -1.004685e+00 5.747143e-01 5.097670e-01 3.752045e-01 1.508694e+00 -8.671759e-01 -2.157534e-02 8.926850e-01 4.358602e-01 3.295543e-01 -3.721483e-01 1.288116e+00 1.007849e+00 -7.374040e-01 5.478497e-01 1.288327e+00 1.077027e+00 1.514066e+00 3.716159e-01 -4.541545e-01 -1.145094e+00 -7.980399e-01 3.349774e-01 -6.924555e-01 1.284934e-01 -1.557299e+00 -1.162320e+00 4.752260e-01 1.847519e+00 1.300653e-01 2.537615e+00 -8.721661e-02 -2.112680e+00 2.395488e+00 4.147337e-01 -3.106599e-03 1.316543e+00 -5.610993e-01 -1.106830e+00 5.260302e-01 5.265824e-01 5.207282e-01 -2.150308e-02 -4.386194e-01 4.260669e-01 -1.697760e+00 -2.059309e+00 -9.019217e-01 1.782250e+00 3.117163e-01 -1.980598e-01 -4.533007e-01 -7.259521e-01 -6.679725e-01 6.585655e-02 5.950703e-01 8.112911e-01 1.461623e+00 -1.004443e+00 -7.183137e-01 6.308313e-01 3.206778e-01 -7.607906e-01 1.234633e+00 -1.587980e-01 -4.634875e-01 7.784306e-01 4.238250e-01 1.071512e+00 1.687760e+00 -3.588118e-01 -3.698917e-01 -5.780615e-01 -4.025626e-03 -7.297883e-01 3.076392e-01 6.321792e-01 2.162137e-01 4.706320e-01 2.134607e+00 3.236375e-01 -3.804302e-01 6.751589e-01 -1.952402e+00 4.827049e-01 -3.432581e-01 1.005860e+00 -6.189615e-01 -1.110098e-01 1.221822e+00 4.144638e-01 8.660204e-01 4.830756e-01 9.427034e-01 -2.146554e+00 2.124498e+00 5.060407e-01 -5.789616e-01 -1.338835e+00 1.841365e-01 1.222705e+00 -1.876487e-01 5.119780e-01 -8.103730e-01 1.004897e+00 -3.061645e-01 -1.049067e+00 -1.292988e+00 4.349450e-01 -2.032806e+00 6.917552e-01 -1.046580e+00 -1.002977e+00 -7.731022e-01 1.762856e-01 1.173914e+00 2.647648e-01 -2.030955e-01 -2.455530e-01 4.604178e-01 9.654096e-01 4.226561e-01 -7.526310e-01 7.605908e-01 -7.819840e-01 1.858520e+00 1.018084e-01 1.609513e-02 7.454951e-01 7.539442e-01 1.092608e+00 -1.463732e+00 2.485026e+00 1.433779e+00 -1.093471e+00 -8.359304e-01 2.906377e-01 4.178021e-02 6.247681e-01 -1.076656e-01 9.706657e-02 1.419574e+00 -1.251434e+00 -1.528869e-01 2.069462e+00 3.157049e-01 -1.866896e+00 1.583724e+00 3.519219e-01 4.965900e-01 -1.358843e+00 -2.336886e-01 -1.005957e+00 1.012908e+00 -1.798262e-03 -1.652575e-01 3.198065e-01 1.198697e+00 -2.476346e+00 9.884626e-02 3.049110e-01 -2.637754e+00 -4.830823e-01 -4.847101e-01 -9.091393e-01 -6.985607e-01 -8.158995e-01 -1.232575e+00 9.792611e-01 5.255992e-01 -7.001428e-03 -1.402341e-01 -3.129039e-01 4.313157e-01 -1.809545e-01 2.386514e-01 1.057086e+00 5.527369e-01 1.621457e+00 -7.035735e-01 3.788263e-01 1.198633e+00 5.597709e-02 8.244689e-01 1.547185e+00 1.125828e+00 2.272189e+00 3.540423e-01 2.076750e-01 1.385713e+00 8.222219e-01 3.920645e-01 8.251420e-01 2.177986e+00 1.168658e-01 -8.253256e-01 -6.885126e-01 -2.427034e-01 -1.264514e-01 4.243082e-01 -5.381288e-01 -6.593804e-01 5.705264e-01 -2.267124e+00 -1.005307e+00 -6.151850e-01 3.481647e-01 -1.688030e+00 -6.235107e-01 -2.018934e+00 -7.966562e-01 1.676653e+00 2.824925e-02 1.297584e+00 -5.645982e-01 -9.225005e-01 -3.775731e-01 5.517626e-01 6.347923e-01 -5.701272e-01 4.659823e-02 -2.795019e-01 -1.133686e+00 -2.375659e+00 2.759119e-01 -3.958469e-01 -8.748791e-01 1.531689e+00 1.246613e+00 5.333940e-01 -6.143138e-01 -4.347129e-01 -1.824266e+00 4.489462e-01 1.228068e+00 -2.579831e-01 -5.046726e-01 1.675631e+00 -1.041245e+00 -4.659546e-01 -2.277604e+00 -1.300959e+00 6.888919e-01 3.010875e-01 2.021934e+00 -1.439238e+00 -3.116474e-01 1.873405e+00 -2.561436e+00 1.560814e-01 -8.572749e-01 1.270618e-01 -5.237027e-01 -3.439126e-01 -4.976714e-01 6.400405e-02 -8.721745e-01 5.194144e-01 -1.083200e+00 2.225075e-01 1.477076e+00 1.249293e+00 1.889323e+00 8.515394e-01 -1.370755e-02 2.839990e-01 9.230755e-01 1.089090e+00 -7.093282e-01 -2.326128e-01 -1.242099e-01 8.217435e-01 8.551612e-01 2.858813e-01 6.138854e-01 -4.334515e-01 -8.236921e-01 8.433978e-01 9.424230e-01 1.305514e+00 2.171851e+00 -5.554235e-01 -1.882913e+00 7.941986e-02 -3.407303e-01 7.157313e-01 1.011730e-01 6.229243e-01 6.557854e-01 -1.096361e-01 1.091119e+00 1.008531e+00 1.790405e-01 -3.609288e+00 -9.672090e-01 -6.757866e-02 6.937282e-01 -6.483061e-01 -2.492620e+00 7.588354e-01 9.634198e-01 1.794108e+00 1.583868e+00 2.135235e-01 -1.115349e-01 1.137305e+00 -1.013526e-01 -4.948795e-01 -1.024360e-01 -1.587013e+00 2.071910e+00 4.665584e-02 -1.422771e+00 -1.473891e-01 8.484935e-01 8.878194e-02 -1.184544e+00 -5.005645e-01 -1.501616e+00 5.128186e-01 -7.006227e-01 4.185975e-01 -1.420315e-01 3.419930e-01 1.692778e+00 -5.196562e-02 -5.330204e-01 -3.220365e-01 4.775534e-01 -1.704161e+00 2.020229e+00 -2.393156e-02 1.430484e+00 -3.037323e-01 -1.069701e-01 -1.065838e+00 1.093226e-01 1.896990e-01 -2.377686e+00 -5.756268e-02 4.653773e-01 -1.107176e+00 -3.818043e-01 2.013550e+00 1.292371e+00 -5.877106e-01 6.908455e-01 -8.041570e-01 6.218234e-01 -8.438919e-01 9.786405e-01 8.405566e-01 2.099468e+00 1.316592e+00 -6.380641e-01 -1.258533e-01 -1.060772e+00 1.627565e+00 1.417348e-01 -1.193757e+00 3.929754e-01 -8.898989e-01 6.283618e-01 -8.458843e-01 7.845913e-01 -5.279866e-01 1.865305e+00 -1.164523e+00 1.166299e+00 5.958307e-02 -1.172454e+00 -9.173349e-01 -1.899450e+00 1.157461e-01 -3.424709e-01 4.326779e-01 -1.220336e+00 3.144133e-01 -1.646831e+00 1.103363e+00 1.146055e+00 2.228051e-01 -1.467275e+00 5.200123e-01 -1.246636e+00 5.411930e-01 1.339590e-01 3.880775e-01 -4.794929e-02 2.479519e-01 -2.453525e-01 1.198276e+00 4.579365e-01 -6.629739e-01 -5.806759e-01 -3.338006e-01 -2.997138e-02 2.157069e+00 4.296259e-02 1.218319e+00 -1.149269e+00 2.657566e-01 9.421877e-01 -5.195664e-01 2.064303e+00 -2.070888e+00 1.319562e+00 4.153774e-01 2.821564e-01 2.574701e-01 -1.971610e+00 8.140949e-01 1.017712e+00 -2.745271e-01 6.199713e-01 1.270087e+00 -6.990977e-01 -1.509966e+00 -2.255086e-01 9.407595e-01 -6.837382e-01 -2.079569e+00 3.239533e-01 8.762722e-01 4.095070e-01 -6.027037e-02 5.048294e-01
1.986005e+00 8.028331e-01 -5.759166e-01 3.189045e-01 4.703768e-01 -9.514117e-01 -8.962955e-01 8.147813e-01 -1.145345e+00 5.776346e-01 -1.922104e-01 -1.608004e-01 9.188511e-01 -9.244337e-01 5.617998e-02 -1.514818e+00 -6.743247e-01 8.978033e-01 6.358231e-01 9.411121e-02 -1.730538e-01 -2.417184e-01 3.638414e-02 1.323113e+00 4.031672e-01 9.778155e-02 9.436973e-01 1.289961e+00 1.002188e-01 -1.701856e+00 2.414820e+00 1.295152e+00 1.617378e-01 -2.091290e+00 3.011425e-01 1.708498e+00 1.617937e+00 8.844487e-01 -7.000469e-01 -1.735448e+00 -4.603151e-01 -9.503596e-01 8.433607e-01 -8.411882e-01 1.827787e+00 4.896546e-01 -2.580779e-01 9.873796e-02 -1.148619e+00 2.062111e-01 -6.651488e-01 -2.470828e-01 1.899614e+00 1.842832e+00 4.456823e-01 1.216834e+00 -8.265839e-01 -1.295789e-01 7.236469e-01 -8.779932e-01 5.248398e-01 -4.563028e-01 2.268413e-02 5.140756e-01 4.537701e-01 3.953280e-01 1.038964e+00 -5.447497e-01 -4.956226e-01 -5.239634e-01 -9.405679e-01 -1.664462e+00 -4.455900e-01 4.402396e-01 1.196392e+00 6.106416e-02 -1.979041e-01 -1.406666e+00 7.233447e-01 -5.996734e-01 -6.355541e-01 1.088796e+00 -1.226995e-01 -5.762909e-01 -9.938632e-01 2.331841e-01 -2.273345e-01 -1.009601e+00 -2.133216e-01 -2.244484e+00 -3.668454e-01 1.369266e+00 -1.537471e+00 6.816437e-01 6.784725e-01 9.217615e-01 1.951626e+00 -1.204515e+00 8.900193e-02 1.786076e+00 6.828835e-01 -1.147914e+00 -1.184150e+00 -3.717987e-01 -1.625043e-01 6.687533e-01 -1.203073e+00 4.338496e-01 1.735773e-01 -1.082572e+00 1.805223e-01 -1.473886e-01 8.070680e-01 -2.132457e-01 -1.273572e-01 8.593311e-01 -1.756055e+00 9.496675e-01 2.095073e-01 2.417160e-01 -6.112504e-01 -3.668185e-01 5.675741e-01 5.673642e-01 -1.001618e+00 -2.011747e+00 7.773321e-01 8.762573e-01 -1.426900e-01 -1.076266e-01 2.340787e+00 -1.407005e+00 2.384677e-02 1.352711e+00 5.711285e-01 3.255513e-01 -8.348060e-02 -1.050405e+00 -7.699996e-01 9.923528e-01 8.530974e-01 -3.094050e-01 1.610612e+00 1.089588e+00 -6.337763e-01 1.645146e+00 1.161401e-01 8.009486e-01 -3.347147e-01 -5.352630e-01 4.858089e-01 -1.045488e+00 -3.389863e-01 -1.786322e+00 8.818123e-01 -1.957410e+00 -6.986101e-01 1.522322e+00 2.640991e-01 5.615955e-01 -4.109892e-01 -1.262175e+00 -1.736158e+00 -5.053009e-01 -2.348359e+00 -1.167994e+00 1.137364e+00 9.966804e-01 5.091803e-01 1.244221e+00 4.410383e-01 -2.172718e+00 2.409221e-02 -2.569173e-01 2.306705e+00 -1.070491e+00 -3.390999e-01 -1.288889e+00 -4.067467e-01 -7.892939e-01 -1.575191e-01 3.677909e-01 -9.575889e-01 4.636018e-01 -1.047852e+00 -5.859856e-01 -4.285086e-01 -1.261376e+00 5.787993e-01 1.532198e+00 4.168146e-01 -1.338601e+00 9.831723e-01 1.457225e+00 1.542416e+00 -4.947231e-01 -1.542011e+00 2.606757e-01 9.653132e-01 -5.977168e-01 -5.146732e-01 -1.733852e+00 -2.759891e-01 -6.955608e-02 -1.444190e+00 5.867486e-01 -3.296700e-01 1.149974e+00 -2.183977e+00 4.528093e-01 2.482374e-01 1.165187e+00 8.143544e-01 4.701290e-01 1.872654e+00 -8.026130e-01 -2.375853e+00 4.859529e-01 -1.753815e+00 -4.021780e-01 1.083917e+00 6.951752e-01 -7.634610e-01 -1.371883e+00 -2.122455e-01 1.387341e+00 -9.497750e-01 -1.070926e+00 6.175054e-02 -3.094933e-01 -1.081925e+00 4.668144e-01 -4.482440e-01 -2.113149e+00 -1.458011e+00 1.504744e+00 9.091785e-01 -4.768851e-01 -4.748691e-01 -4.491046e-01 -9.797725e-01 3.406054e-01 -8.987482e-01 6.110016e-01 -9.843015e-01 9.166767e-01 5.067399e-01 -6.841736e-01 3.406808e-01 -5.672161e-02 -5.232414e-01 8.848705e-01 1.564703e+00 1.087363e+00 -1.699943e+00 1.619112e+00 -6.606437e-01 -4.166621e-01 3.275351e-01 5.122932e-01 -2.470316e-01 6.255740e-01 -4.785363e-01 1.412641e+00 -6.628175e-01 7.686663e-01 -5.518786e-01 -3.986456e-02 2.737776e+00 -7.257186e-01 -4.653121e-01 8.606264e-03 2.860208e-01 -1.537978e-01 -1.539229e+00 -6.375686e-01 -1.012495e+00 4.344194e-01 1.434983e+00 -1.429178e-01 -2.097760e+00 -5.653385e-01 -2.845978e-01 -4.197748e-01 -8.456449e-02 -9.753405e-01 -1.845096e-01 -5.250455e-01 -1.064129e+00 2.321881e-01 1.335859e+00 -1.222934e+00 6.587012e-02 5.668289e-01 -1.676284e+00 -1.726107e+00 -5.105971e-01 5.150839e-01 -3.857155e-01 -3.209782e-01 -1.185382e-01 -7.983578e-01 -1.128117e+00 -7.054678e-01 6.668944e-02 2.264112e-01 1.074852e+00 -6.635719e-03 -4.818171e-01 -5.410569e-01 2.993799e-01 1.198472e+00 2.269597e+00 1.171340e+00 -8.158180e-01 -1.440520e+00 2.089478e+00 5.982756e-01 2.367112e+00 9.319828e-01 -1.048738e-01 -1.728015e+00 1.411032e-01 -4.326753e-01 -1.524890e+00 -3.735736e-02 1.308984e+00 6.303528e-01 -8.312885e-01 -1.866879e+00 -1.093025e-01 -1.232924e-01 4.707131e-01 1.759303e-01 1.455710e+00 -6.450164e-01 7.021775e-01 1.268947e+00 -9.477670e-01 7.775956e-01 -7.422101e-01 -6.825948e-01 -1.412757e+00 1.587905e-01 -6.806507e-01 -2.886990e-01 8.723140e-01 -1.547991e-01 1.274972e+00 1.885567e+00 -8.498136e-01 -4.685565e-01 6.811114e-01 -9.013508e-01 4.512993e-01 1.085921e+00 1.726865e+00 -5.364714e-01 -1.474758e+00 1.209710e+00 2.728218e-01 3.953405e-01 1.533722e+00 1.123000e+00 -3.168521e-01 8.174635e-02 -1.867767e+00 1.090296e+00 1.277905e-02 -8.504861e-01 -9.669901e-01 -1.303352e+00 -8.020204e-01 -1.726447e+00 3.235737e+00 3.878843e-01 1.016392e+00 7.380771e-01 -1.985589e+00 8.135636e-01 2.488549e-01 -8.918363e-02 -1.165370e+00 2.758565e-01 9.103769e-01 1.346156e+00 -1.128435e+00 -6.027521e-01 -1.065513e+00 1.350906e+00 8.712212e-02 2.625143e-01 1.518808e-01 -2.152526e+00 -8.347655e-02 -1.747168e+00 -4.053750e-01 -6.306781e-01 -1.949895e+00 -1.726796e+00 -6.823408e-01 -1.528929e+00 8.638222e-01 -4.260855e-03 1.247891e-01 -9.766947e-01 1.127076e+00 2.341297e+00 -1.925090e-01 -1.076661e-01 -2.739327e-01 -3.348184e-01 -4.538697e-01 1.250521e+00 -8.627850e-02 1.959569e-01 -2.784225e-01 -3.251433e-01 1.495272e+00 1.064988e+00 -3.772358e-01 -2.052791e+00 2.501706e+00 -1.828752e+00 -6.748398e-01 3.536305e-02 8.135285e-01 -6.708984e-01 -1.414959e+00 2.635223e-01 2.405750e-01 -4.140875e-01 3.261443e-01 2.482936e-01 3.669317e-01 3.218831e-01 5.843923e-01 -7.775855e-01 1.342029e-01 -6.027243e-02 2.985233e-01 -1.209456e+00 2.949471e-01 -8.987801e-02 8.897825e-01 -1.469682e-01 2.657586e-02 7.897992e-02 -2.032983e-01 -6.512374e-01 2.606818e-01 2.597614e+00 -6.342051e-01 8.516048e-02 8.179319e-01 -5.960916e-01 9.029445e-01 -3.302481e-01 -2.799892e-01 -1.967508e+00 5.047436e-01 -1.353275e+00 1.089405e+00 -1.216848e+00 -2.441132e-01 9.084272e-01 7.474651e-01 -1.447897e-01 -2.348526e+00 -1.872702e-01 6.107541e-01 -1.472891e+00 -6.255689e-01 1.730285e+00 1.225167e+00 4.909365e-01 6.583490e-01 -3.353282e-01 -5.287715e-01 9.423295e-02 7.150055e-01 6.092112e-01 -3.031800e-01 2.074453e+00 3.415072e-01 -4.361320e-01 5.466758e-01 -5.485325e-01 -4.351436e-01 4.166280e-01 -1.010804e+00 9.569829e-01 9.132308e-01 2.626460e-01 1.708652e-01 2.622414e-01 -2.661307e+00 -2.395740e-01 -1.568540e+00 -4.801890e-01 -2.026079e+00 1.255432e+00 -1.464081e-01 1.077020e+00 1.676016e+00 3.525624e-01 5.822807e-01 -4.981787e-01 1.877765e-01 1.083447e+00 -1.268239e+00 -1.640405e+00 1.412394e-01 -8.537501e-01 -6.070348e-01 8.201147e-01 -3.366981e-01 -7.308250e-01 1.385605e+00 -4.086925e-01 1.746103e+00 4.653437e-01 7.204245e-01 -4.184861e-01 -5.798903e-01 -8.447680e-01 1.296904e+00 -7.051812e-01 -1.107082e+00 4.163561e-01 3.876766e-01 -6.693896e-01 -9.511823e-02 -5.747323e-01 5.884074e-01 -4.345971e-01 -4.930741e-01 -3.741289e+00 1.582484e+00 3.873097e-02 6.682248e-01 6.382631e-01 -7.790348e-02 8.840727e-01 -1.327986e-01 -5.347985e-01 1.205297e-01 -1.157459e+00 -2.182978e+00 -3.401542e-01 9.492024e-01 2.909946e-01 1.706045e-01 2.612933e+00 8.313953e-01 4.741761e-01 7.599629e-01 7.880031e-01 8.463734e-01 8.375656e-02 -1.162333e+00 -8.086431e-02 -1.555649e+00 1.459301e+00 4.711399e-02 1.791507e-01 -3.156153e-01 6.443424e-01 2.656823e-01 -3.298874e-01 -4.576472e-01 3.670318e-01 -1.708137e+00 7.319566e-01 -8.108837e-01 -1.414580e+00 2.520869e-01 -1.781378e+00 5.371460e-01 5.624448e-01 -1.377901e-01 -1.524140e+00 2.250531e+00 -1.355226e+00 6.288941e-02 7.096617e-01 -4.544961e-01 4.169199e-01 3.881796e-01 -7.383271e-01 -1.796072e+00 2.166406e+00 -7.726163e-01 -6.190506e-01 -8.099114e-01 7.311357e-01 -1.418428e-01 -6.615813e-01 -1.564957e+00 1.029930e+00 -4.193473e-01 1.944937e+00 8.123768e-01 1.112241e+00 8.973763e-01 8.723137e-02 -6.473056e-01 -2.596310e-01 -3.224914e-01 -2.148632e-01 1.666752e+00 1.209568e+00 8.772896e-01 1.548982e+00 1.275121e-01 2.207889e-01 9.258096e-01 -7.498273e-01 -1.086849e+00 -7.195451e-01 -1.040251e+00 1.555620e-01 -8.988767e-01 1.228056e+00 5.480100e-01 -1.290031e+00 1.400747e+00 1.488430e+00 8.361496e-01 -6.143319e-01 -1.464782e+00 -4.480732e-01 6.313481e-01 -5.664770e-01 -3.872660e-01 -9.205361e-01 7.140148e-01 -1.059092e+00 -9.014989e-01 2.009139e-02 -7.534934e-01 7.097547e-01 1.836007e+00 -6.507856e-01 -1.060055e+00 -5.764168e-01 -5.401003e-02 9.729861e-01 7.445530e-01 2.063266e+00 8.056972e-01 -1.340510e+00 -2.769114e+00 1.021725e+00 -3.187944e-01 1.693271e+00 -1.520460e+00 -1.112388e+00 -5.454651e-01 1.338759e+00 6.501847e-01 -2.179845e-01 -8.694407e-01 3.400678e-01 4.464667e-03 1.008630e+00 1.306772e+00 -1.518295e+00 6.013687e-01 -6.151686e-01 -7.569083e-01 1.381836e+00 2.747029e-01 -1.100765e+00 6.832512e-01 -6.537868e-01 1.649258e+00 -3.553509e-01 6.878446e-01 1.381611e+00 -9.614717e-02 3.115739e-01 6.567814e-01 -6.951193e-01 -6.990910e-01 7.585197e-01 8.686519e-01 -6.760731e-01 4.509846e-01 1.140514e+00 -1.559896e+00 8.665427e-02 7.685524e-01 8.661795e-01 1.489931e+00 -6.948014e-01 -4.450748e-02 9.996470e-02 -8.358919e-01 -1.064183e+00 -7.574585e-01 -1.284194e+00 -1.096694e-01 -9.078274e-01 -5.844003e-01 -7.532502e-01 4.705845e-01 -9.774964e-01 1.115876e+00 -4.191424e-01 -1.514948e+00 8.574031e-01 1.200338e+00 -4.695060e-01 -5.073614e-01 2.039382e+00 5.944512e-01 -7.714943e-01 -2.567100e-01 2.251299e+00 7.423897e-01 9.191547e-01 -8.275231e-01 3.303401e-01 -6.869795e-01 1.017178e+00 -1.867847e+00 6.579727e-01 2.298011e+00 -3.200613e-01 -8.784522e-01 2.640842e+00 -5.259174e-01 8.936655e-02 2.931636e-02 -3.396477e-01 -7.132301e-01 7.923373e-01 -2.069277e-01 -2.420246e-01 -9.514022e-01 1.638639e-01 9.566832e-01 3.338966e-01 -9.534155e-01 1.002480e+00 -8.670260e-03 3.887125e-01 3.907136e-01 -2.842767e-01 -3.809116e-01 3.661227e-01 4.818367e-01 3.641011e-01 -7.501647e-01 1.811410e-01 4.381724e-01 7.766102e-01 7.732497e-01 2.012657e+00 1.707748e+00 2.867922e-01 -1.276089e-01 3.506011e-01 9.856851e-02 -3.893646e-01 -1.760481e+00 1.464994e+00 3.606894e-01 -1.805261e+00 -7.219416e-01 -7.799048e-01 -4.413804e-01 -2.562239e-01 -1.513363e-01 -6.627438e-02 -9.702266e-01 -2.932608e-01 -1.083208e+00 -1.118670e+00 1.418378e+00 -5.169124e-02 -3.814254e-01 6.262845e-01 -1.712116e+00 -1.929182e+00 3.127758e-02 6.661017e-01 3.717563e-02 -3.283445e-01 5.121180e-01 -1.370708e-01 3.764852e-01 -2.907578e-01 -6.449752e-02 9.516060e-01 2.525468e-01 1.643139e-01 2.900875e-01 -7.137014e-01 3.550581e-01 2.608834e-01 -9.946456e-01 5.891362e-01 -5.924616e-01 1.504575e+00 -1.008602e+00 -1.384632e+00 -1.490002e+00 2.331420e-02 3.890397e-01 1.234248e+00 3.025847e+00 1.244867e+00 4.913131e-01 -1.363635e+00 -1.514481e+00 -2.498061e-01 -4.054719e-01 -7.680790e-02 4.294361e-01 -4.649596e-01 -2.273083e-01 -8.330117e-01 1.796472e-01 1.344902e+00 4.274722e-01 -7.027552e-01 8.083684e-01 1.407888e+00 6.435050e-01 -1.374400e-01 5.996044e-01 1.099800e+00 9.713034e-01 6.839460e-01 -6.132503e-01 -1.952914e-01 -8.899115e-01 6.455955e-02 -1.439273e-01 9.118290e-01 2.921153e-01 -1.372580e+00 1.610984e+00 7.186695e-01 8.227440e-01 -1.135052e+00 -1.237851e+00 -1.109178e+00 -1.662918e+00 2.714983e-01 -5.053267e-01 2.424350e+00 8.636521e-01 -8.858422e-01 -7.035751e-01 8.288705e-01 -5.665575e-01 -1.466111e+00 1.878458e-02 -5.122522e-01 2.654640e-01 7.359268e-01 4.477174e-01 -4.563575e-01 -1.570014e+00 -8.657173e-01 2.222221e+00 -2.916660e-01 2.047244e+00 -1.890376e+00 2.962337e-02 2.033422e-01 5.742885e-01 8.059501e-01 -1.151105e-01 -5.427522e-01 -4.836276e-01 9.758484e-01 -3.898581e-01 1.062329e+00 3.312619e-01 2.774673e-01 -1.083357e+00 -1.899850e-01 -1.315849e+00 -2.049971e+00 -7.075186e-01 -1.617659e+00 5.412968e-01 -2.422163e-01 6.410104e-01 -5.084308e-01 -1.302786e+00 7.489570e-01 -6.279358e-01 -1.039729e-01 -6.500638e-01 1.492613e+00 -1.290284e+00 -1.219487e+00 -4.619173e-01 2.114969e-03 -6.433400e-01 -1.112890e+00 -1.316789e+00 -5.924931e-01 9.397070e-01 9.681982e-01 9.891158e-01 -1.120306e-01 3.364522e-01 -6.225935e-01 5.897771e-01 -2.691580e+00 2.373498e-01 6.685430e-02 -2.491555e-01 -2.197884e+00 -5.165334e-01 7.010474e-01 8.697647e-01 6.817234e-01 6.353525e-02 1.329748e-03 4.800235e-01 -1.740865e-01 -3.938196e-02 -3.231010e-01 3.987591e-01 -6.137490e-02 8.726290e-01 -1.174759e-01 1.123384e+00 -8.250352e-01 -8.129745e-01 -2.121562e-01 -2.847956e-01 -3.064692e-01 8.389577e-01 3.047397e-01 -1.506785e+00 5.116973e-02 1.224359e+00 -1.242420e+00 -3.034615e-01 1.446447e+00 -1.150310e+00 -1.237230e+00 -1.137513e+00 -9.829122e-01 -1.658943e+00 -2.451500e-01 5.967222e-01 -1.059358e-01 1.271943e+00 2.551365e-02 1.508234e+00 -1.279739e+00 -3.221614e-01 -3.942893e-01 5.197730e-01 -1.139329e+00 1.269748e+00 -7.924369e-01 2.073130e-01 3.497022e-01 -2.211486e-01 -5.127776e-01 -1.646469e-01 8.583986e-01 -1.337677e+00 3.817071e-01 -7.319510e-02 -5.681382e-01 1.624858e+00 3.963102e-01 -2.548748e-01 -2.271541e+00 2.014369e-02 -2.384349e+00 -2.575502e-01 1.092166e+00 8.605570e-01 -1.355086e+00 1.628321e+00 6.228441e-01 -8.925464e-01 -5.937892e-01 -1.049314e-01 5.945223e-01 -1.010374e+00 1.099161e+00 8.046736e-01 -1.086142e+00 -4.496842e-01 -1.407983e+00 -2.159902e+00 -9.553300e-01
-5.926372e-02 -2.407824e-01 1.524723e+00 -2.518568e-01 2.065193e+00 3.678747e-01 4.514801e-01 -1.172799e+00 -2.622761e+00 -2.919229e+00 -1.119770e+00 1.536351e+00 4.283908e-01 2.555303e-01 9.173802e-03 -2.108870e+00 -5.107537e-01 4.309856e-02 -1.853997e+00 -9.677340e-01 1.112940e+00 1.091649e+00 2.675042e-01 -5.223272e-01 1.698317e+00 -1.268007e+00 1.160247e+00 -4.859276e-02 -2.631882e-01 3.588368e-01 -2.151642e+00 -5.963588e-01 7.283900e-01 1.959098e+00 1.432536e+00 -1.278287e-01 1.935845e+00 8.131366e-01 4.544477e-01 1.528162e+00 1.057035e+00 3.099310e-01 1.414394e+00 5.188993e-01 8.521272e-01 -3.992725e-01 3.891735e-01 -1.249808e+00 1.341023e+00 -4.669363e-01 2.150301e+00 1.587531e+00 5.043644e-01 -9.221060e-01 -1.003548e+00 1.076996e+00 -1.864635e+00 -8.999788e-01 -1.064007e-01 4.317950e-01 9.047196e-01 3.436541e-01 4.343378e-01 -1.142441e+00 -5.896598e-01 -6.096797e-01 9.706121e-01 -4.597720e-01 -3.134149e-01 2.246043e-01 5.727663e-01 2.741348e-01 -1.303678e-02 -1.544429e+00 -1.835718e-01 -2.551608e+00 -6.656328e-01 1.047441e-01 5.160403e-01 5.706394e-01 1.468207e+00 4.480776e-02 -2.438332e-01 1.109917e-01 5.357535e-01 -1.508283e+00 -9.103716e-01 -4.059793e-01 1.447111e+00 -1.037587e-01 -1.907033e+00 -8.026165e-01 -8.980513e-01 -1.596847e+00 -1.166095e+00 1.908275e+00 1.167840e+00 -1.722377e+00 1.138279e+00 1.825972e-01 -1.032195e+00 5.769587e-01 -4.110262e-01 -6.274105e-01 -1.878151e-01 8.955049e-02 -6.746640e-01 -1.204486e+00 5.370789e-01 1.623079e-01 -7.050091e-01 1.419464e-01 -1.236194e+00 -8.166019e-01 7.970901e-01 9.611979e-01 9.993009e-01 4.098046e-01 -5.175170e-01 -1.565904e+00 -9.037856e-01 3.106856e-01 -2.868550e-01 1.491309e-02 -2.795858e-01 -8.211861e-01 2.172948e-01 -4.174438e-01 1.113951e+00 3.781398e-02 4.451485e-02 -1.589453e+00 4.782296e-01 1.615277e+00 2.443469e+00 5.467781e-01 -6.324159e-01 3.192211e-01 4.839162e-01 -1.107131e+00 -6.735939e-01 8.945568e-01 7.695640e-03 1.334871e+00 -5.879137e-01 -1.413926e+00 1.772817e+00 3.092703e-01 -2.822742e-01 -3.228339e-01 4.418090e-01 1.511759e+00 -1.076671e+00 -2.748416e+00 1.546318e+00 -2.427863e-01 -7.694316e-01 -4.522993e-01 -8.480295e-02 2.203593e-01 1.426763e+00 -1.311199e+00 -1.771699e-01 -5.349706e-01 2.258229e+00 2.693812e-01 1.367779e+00 5.238946e-01 -4.614129e-01 -1.292703e+00 -1.533052e+00 5.889532e-01 -1.104703e+00 1.578374e-01 3.840638e-03 -1.888153e-01 -2.144641e-01 3.964281e-01 -5.706003e-01 -5.170503e-01 5.326838e-02 1.548172e+00 -9.595976e-01 1.122125e-01 1.454033e+00 2.357258e-01 1.777184e+00 -1.667222e-01 1.059760e+00 -3.629610e-01 1.460456e+00 3.608917e-01 -6.384127e-02 -5.715207e-01 7.544451e-01 -1.343442e-01 2.503450e-01 1.329174e+00 1.315692e+00 2.286616e-01 1.333428e+00 3.002881e+00 -8.126760e-01 5.870922e-01 5.255158e-01 -3.763818e-01 -4.156171e-01 -4.142555e-01 1.820966e-01 -2.510945e-01 5.660359e-01 -1.897505e+00 -1.120333e+00 -7.009676e-01 2.642888e-01 -1.667241e+00 -2.029976e+00 3.390733e-01 -1.470277e+00 4.409482e-01 1.759910e-03 -7.455829e-01 3.736207e-01 -2.162324e-01 -1.163200e+00 1.758000e+00 4.808560e-01 7.461421e-01 -1.378566e+00 -6.524927e-01 2.520620e+00 -1.933152e+00 -5.235935e-01 -6.185259e-01 4.221066e-01 1.143820e+00 -2.965111e-01 1.603414e+00 -1.856172e+00 -1.566185e-01 -1.895576e-01 -1.911655e-01 4.859439e-01 -1.542656e+00 -1.289677e+00 1.016499e+00 -7.836207e-01 -2.195605e+00 6.613180e-01 -1.460323e+00 -1.291352e+00 -2.742035e-01 -1.116742e+00 -7.216903e-01 1.189093e-01 -4.285592e-01 -3.734950e-01 -5.769585e-02 7.362250e-01 2.171813e-01 -1.116278e+00 1.370053e-01 -1.560397e+00 1.227436e+00 -9.718318e-01 -1.861209e-01 -2.952273e+00 -4.820769e-01 -6.227281e-01 -2.072103e-01 -7.597482e-01 -1.439311e+00 2.236600e+00 9.932934e-01 -1.314299e+00 4.756176e-01 -9.794489e-01 -7.232958e-01 8.885156e-01 3.724273e-01 1.396106e+00 -1.635880e+00 1.170948e+00 -5.408095e-01 -9.520612e-01 -6.418043e-01 -1.159038e-01 -1.375196e+00 1.371934e+00 -9.729313e-01 1.275330e+00 -3.607478e-01 3.188539e-01 -3.002681e-01 2.530915e-01 8.218309e-02 -1.092397e+00 2.526464e-01 -1.074795e+00 -1.812601e+00 6.930111e-01 7.754000e-01 -1.724621e+00 1.110852e+00 4.814976e-01 -8.750784e-01 -5.952779e-01 -2.001178e-01 4.636357e-02 4.689318e-01 -8.054085e-01 5.687466e-01 1.257280e+00 6.987641e-01 1.243433e+00 1.201345e-01 -2.155286e+00 -1.417172e+00 -7.921276e-01 4.764359e-01 -9.609522e-02 -7.890843e-02 7.862035e-01 3.932547e-01 -2.851757e-01 -1.363879e-01 8.965071e-02 8.069728e-01 -3.971402e-01 9.745604e-01 2.263978e+00 -4.037921e-01 -2.256433e-01 -5.140443e-01 -9.740924e-01 -3.329446e+00 1.212143e-01 -1.055890e+00 1.533583e-01 5.265788e-01 1.234849e+00 -1.220582e+00 -2.649505e+00 -1.058400e+00 4.140712e-01 9.219406e-01 1.242298e+00 -3.859797e-02 3.674930e-01 1.074678e+00 1.019203e+00 -6.552217e-01 -6.650228e-01 7.029493e-01 -8.154877e-01 -2.143902e-02 -1.497313e+00 1.005296e+00 9.903543e-02 6.321603e-02 5.822353e-01 -1.691013e+00 1.478118e-01 2.041418e+00 1.168219e-01 2.392880e-01 7.436462e-01 -1.011104e+00 3.006581e+00 4.048259e-01 9.634752e-01 -1.123397e+00 8.957398e-01 -1.404873e+00 6.367448e-01 -7.999496e-02 -1.994500e+00 2.157908e+00 2.247751e+00 -1.895393e+00 -1.756217e+00 -1.394440e+00 -6.239750e-01 8.152983e-01 -1.422338e+00 -6.518115e-01 -9.374310e-01 -9.725504e-02 -1.486767e+00 2.900424e-01 1.236682e+00 -6.629868e-01 5.589420e-01 -3.849879e-01 -8.330468e-01 -5.090590e-01 2.814833e-01 -2.024049e+00 -1.133124e+00 5.567422e-01 -8.036897e-03 -5.913832e-01 7.857425e-01 -9.311916e-01 -1.056917e+00 -1.219628e+00 -2.090616e+00 4.626749e-01 -2.078138e-01 1.743690e-01 -1.147156e-01 5.832701e-01 6.310938e-01 4.621100e-01 -4.271249e-01 5.511230e-01 1.255263e+00 -3.731055e-01 -1.869446e-01 5.178194e-01 1.218926e+00 2.810386e-02 -3.046782e-02 1.262481e-01 -1.053649e+00 1.217321e+00 5.484889e-01 -2.275372e-01 4.713409e-01 -1.311703e+00 -4.102353e-01 -1.134546e+00 1.055451e+00 -7.879849e-01 1.330075e-01 -2.553774e-01 -1.024107e+00 1.895590e-02 4.045036e-02 -1.425863e-01 -1.322080e+00 -1.020238e-01 -2.421569e-01 -1.947047e+00 -4.788294e-01 7.147583e-02 -5.186736e-01 3.061855e-01 1.412987e+00 -1.080918e+00 1.355722e-01 1.353918e+00 -1.133443e+00 -4.107465e-01 -7.438124e-01 -1.001683e+00 1.014962e+00 2.205338e-01 -1.344516e+00 -1.623225e+00 3.354622e-01 7.281179e-01 -1.797805e+00 -9.184303e-01 -4.313222e-01 3.874989e-01 1.402124e-02 -6.586160e-01 -2.157154e-01 3.652049e-01 1.166484e+00 1.251051e-01 -8.437345e-01 -6.887258e-01 9.823716e-01 -3.062857e-01 5.648962e-01 3.611958e-01 -1.357913e+00 6.935301e-03 -1.279149e-02 7.616708e-01 -1.770360e+00 -3.411931e-01 1.564904e+00 -1.984285e-01 -2.259445e+00 1.015291e+00 -6.172562e-01 -1.119183e-02 -7.842048e-01 -1.873208e+00 -2.074487e+00 -9.552296e-01 8.537463e-01 2.348867e-01 3.562184e+00 1.605414e+00 -5.767611e-01 -4.547304e-01 -9.993409e-01 -1.179533e+00 -9.543587e-02 -8.561542e-01 -1.100590e+00 1.459444e-01 3.511570e-01 -1.913641e+00 -3.954525e-01 -8.816766e-02 1.735532e+00 1.254224e+00 4.903818e-01 2.866187e-01 3.832524e-01 1.154322e+00 7.645588e-01 1.086480e+00 -6.067809e-01 -1.185300e+00 9.262810e-01 -1.817189e+00 1.159875e+00 6.864373e-01 -3.109232e-01 -2.034228e-01 -1.024098e+00 -8.611979e-01 -1.435020e+00 4.720667e-01 1.209310e-01 7.003370e-01 -7.560855e-01 5.709223e-01 2.072285e+00 7.671887e-01 -7.012332e-01 -8.939251e-01 -4.543063e-01 -1.183754e+00 -1.821006e-01 -9.277683e-01 1.496799e+00 -1.607005e+00 -2.384040e-01 -2.888560e+00 -2.210803e+00 -2.756878e-01 -1.857339e-01 -7.452220e-01 5.525585e-01 7.132587e-01 6.428172e-01 -7.756806e-03 2.253380e+00 1.108970e-01 1.315897e-01 5.823562e-01 -4.836202e-01 -3.611525e-02 1.683960e+00 3.706923e-01 1.306354e+00 -4.636027e-01 -1.294604e-01 -1.937472e-01 -8.382429e-01 1.281423e+00 -2.267862e+00 -9.202958e-01 -4.647839e-01 -4.969409e-01 -2.411397e-01 1.379688e+00 -9.945444e-01 2.275689e-01 4.276833e-01 3.147206e-01 2.307913e-01 4.171682e-01 2.847401e-01 -7.066889e-01 -6.244372e-01 -1.319196e+00 -1.508022e+00 9.542891e-01 1.333882e+00 -2.684259e-01 -4.037747e-01 -8.046714e-01 -4.753571e-02 -4.078393e-01 -3.160661e-01 -1.324216e+00 -6.820448e-02 -9.519507e-01 3.808879e-01 2.709142e-02 -5.585850e-01 -1.394220e+00 -3.480156e-01 -6.395112e-01 1.312150e+00 7.446676e-01 -1.513653e-01 -1.165898e+00 1.276346e+00 -1.300009e+00 -2.563807e-01 1.247738e+00 -1.429345e+00 -3.727163e-01 4.064440e-01 -2.948058e-01 -2.302276e+00 -3.057867e-01 6.733064e-01 -5.110819e-01 2.552823e-01 1.502188e+00 6.077155e-01 -1.992118e-01 5.407084e-01 6.252911e-02 -2.530448e-01 -1.009123e+00 -1.125266e+00 7.552125e-01 7.048907e-01 -2.689894e-01 -1.932918e+00 1.417397e+00 7.254897e-01 1.254506e+00 4.299592e-01 -9.575980e-02 -4.726591e-02 6.196880e-01 -4.462400e-01 -1.233557e+00 -3.133571e-01 -8.738302e-01 -1.266595e-01 -2.302346e-01 6.491713e-01 -4.494611e-01 1.005972e+00 8.288196e-01 3.354218e-01 -3.180986e-01 5.752569e-01 5.096393e-01 -2.976384e-01 5.217565e-01 6.627777e-01 8.232088e-03 -1.256248e+00 1.951538e-01 -2.141657e+00 -1.157686e+00 -3.856150e-02 -5.402932e-01 2.360544e-01 7.058901e-01 3.249925e-01 -3.815692e-01 2.406943e-01 -2.247590e-01 -6.929267e-01 5.570243e-01 -2.694137e-01 7.978119e-01 8.003132e-01 1.232901e+00 -1.323595e+00 8.894547e-01 3.975254e-01 2.557979e-01 5.150220e-02 4.630886e-01 -7.604846e-01 -9.971541e-01 -3.104787e+00 4.284023e-01 -2.418717e-02 4.278199e-02 8.240122e-01 -5.059982e-02 -3.162769e-01 3.623110e-02 -3.805860e-01 1.582198e-01 -2.287983e+00 -6.695462e-01 1.533552e+00 -1.172402e-01 -8.803897e-01 -1.497792e+00 -7.982678e-01 -1.350403e-01 2.880128e-01 3.258803e-01 2.301141e+00 2.012759e+00 2.638064e-01 -9.762175e-01 9.946472e-01 1.235939e+00 -4.951924e-01 1.876582e-01 1.643043e+00 -7.551769e-02 -6.127806e-01 -1.518720e+00 1.000907e+00 2.134205e+00 -6.818594e-01 3.162393e-02 -2.810037e-01 1.655168e+00 -2.851976e-01 -9.809206e-01 -1.276590e+00 2.870446e-01 -1.658457e-01 -6.697982e-01 -4.158622e-01 8.327018e-01 -1.205322e+00 -3.541553e-01 4.559999e-01 -3.568964e-01 3.351664e-01 -1.856574e-01 8.486181e-01 -5.850110e-01 -8.379995e-01 -8.631194e-01 -2.675346e-01 2.271422e-01 3.804678e-01 1.989262e+00 1.248385e+00 2.252132e-01 -5.076992e-01 -2.659608e-01 1.775675e+00 -5.087416e-02 1.671031e-01 -7.784556e-02 2.722046e-01 6.707179e-01 -2.659119e-01 -1.315809e+00 6.997542e-01 -1.346212e+00 1.872250e-01 1.172154e+00 8.538591e-01 -6.434639e-01 1.746426e-02 -7.022798e-02 -4.034347e-01 8.517062e-01 3.707634e-01 -2.035644e+00 5.505991e-01 6.604242e-01 1.146714e+00 1.770136e+00 2.677372e-01 -6.299508e-01 -7.868063e-01 -6.008023e-01 4.352766e-01 -3.710306e-01 1.025321e+00 -2.762711e-01 1.304170e-02 5.297676e-03 -1.982404e+00 -7.050647e-01 -4.444540e-01 -1.182929e+00 -2.837677e+00 5.712461e-01 -1.697470e+00 2.848279e-01 -1.538741e+00 4.687238e-01 6.641583e-01 8.651525e-01 1.189644e+00 4.857474e-01 6.123092e-01 9.195566e-02 8.289119e-01 1.895215e-01 -3.401690e-01 -1.053148e+00 -9.461250e-01 -2.892436e-01 -1.374267e+00 3.061314e-02 -8.695238e-01 -4.960880e-02 -9.011292e-01 -6.073961e-01 2.971229e-02 -1.506600e+00 3.954628e-01 -5.382758e-01 -9.301246e-01 -2.402948e-01 5.486517e-02 6.915274e-01 5.747078e-01 8.875323e-01 -7.634175e-01 -5.548845e-02 -9.159230e-01 -3.859883e-01 -3.924143e-01 -9.975317e-01 -1.023693e+00 -1.057171e+00 -4.806272e-01 4.358678e-01 3.017025e-01 -1.337537e+00 1.604117e+00 -1.283085e-01 7.316500e-01 1.722299e+00 1.359880e+00 -2.013142e-01 -3.189714e-01 8.644675e-01 1.699462e-01 -1.368655e-01 -1.480376e+00 -7.492342e-01 5.348573e-01 -5.477164e-01 -2.028563e+00 -6.163696e-01 1.873242e-01 1.116800e+00 1.021232e+00 2.225752e-01 -6.935488e-01 -2.279983e-01 -6.630996e-01 -2.277643e-01 8.591287e-01 1.093121e+00 -1.506309e-01 -6.111336e-01 -1.022461e+00 -7.764703e-01 1.165378e+00 3.060593e-02 -2.918070e+00 -2.105477e-01 -7.382701e-01 2.576459e-02 -1.419727e+00 2.001939e+00 -7.735523e-01 -1.551007e-01 1.620009e+00 -8.078429e-01 2.025983e+00 3.898752e-01 -5.919800e-01 -2.172911e-01 -1.128803e-01 -3.687772e-01 2.938087e-01 4.976180e-02 5.671554e-01 -5.818460e-01 -1.419936e+00 1.128665e+00 -8.088925e-02 -1.731185e-01 -7.659339e-01 -5.528547e-01 -1.643491e+00 -1.543074e+00 -3.860905e-01 -5.118564e-01 -1.107508e+00 -6.541765e-01 1.073175e+00 -4.425360e-01 1.257916e+00 -7.743078e-01 2.749005e-01 2.235851e-01 1.748202e+00 -9.532303e-01 8.817570e-01 1.165688e+00 1.627744e-01 4.772478e-01 1.683028e+00 -4.703788e-01 1.152802e+00 1.246054e+00 -8.029005e-01 6.099539e-01 3.742821e-01 9.909116e-01 5.728240e-01 2.086822e-01 2.181597e-01 -8.255910e-01 5.264209e-01 -6.921819e-01 -1.015358e+00 3.799795e-02 4.556266e-01 -1.197154e+00 -3.980564e-01 -1.673908e+00 1.266997e+00 -7.062448e-01 1.113207e+00 7.275403e-01 -1.001764e+00 3.966038e-02 1.071448e+00 -4.185889e-01 -1.656518e+00 -2.621569e-01 -4.401881e-01 -7.958233e-01 -7.088809e-01 1.683763e+00 5.268235e-01 5.413191e-01 1.220399e-01 1.316511e+00 -4.608790e-01 9.630902e-02 -1.400038e+00 -6.674539e-01 -1.664677e+00 1.432943e-01 3.863737e-01 1.932897e+00 -3.482108e-01 2.477396e-01 4.550605e-01 7.021417e-01 3.881072e-01 -2.001058e+00 3.395878e-01 1.239488e+00 -9.208611e-02 9.122115e-01 1.720505e+00 1.363395e+00 -1.327571e+00 -6.008143e-01 4.648001e-01 -6.150712e-01 -5.111155e-01 -3.671181e-02 -9.084375e-01 4.441107e-01 -8.217762e-01 4.300044e-01 1.689144e-01 -3.169866e-02 -4.579462e-02 -4.300529e-02 1.364542e+00 -2.768435e-01 -1.263465e+00 -7.227649e-01 -8.124729e-01 7.693421e-01 -2.508542e-01 2.009855e-01 -1.772105e+00 -1.397345e+00 -2.579582e+00 2.613547e-01 -6.946331e-01 1.964639e-01 2.230909e-01 1.219586e-02 6.149186e-01 6.283132e-01 1.311653e+00 1.552569e-01 -1.827213e-01 -1.314285e+00
-3.189156e+00 6.165059e-02 -2.609208e+00 1.002866e+00 -8.068535e-01 3.515536e-01 -4.295719e-01 -9.873626e-01 2.351225e+00 -1.657722e-01 -2.118924e-02 -6.317671e-01 1.984602e-01 -5.286678e-02 -1.028460e+00 -1.358510e+00 -6.833197e-03 -1.176974e+00 -7.263745e-02 -3.863015e-01 -1.036530e+00 -1.787767e-02 4.757239e-01 4.738098e-01 -6.493276e-01 -5.159967e-03 8.573494e-02 -8.348685e-01 -5.377514e-01 -1.051775e+00 -1.544784e+00 -5.273912e-02 -1.078698e+00 3.866120e-01 -1.800664e+00 -4.951653e-01 -8.720797e-01 4.393668e-01 -7.370973e-01 9.736803e-02 -5.115912e-01 7.822849e-01 1.754404e+00 1.221510e+00 -8.302094e-02 9.516752e-01 1.932936e-01 -1.258067e+00 -2.517143e-01 -7.308506e-01 -2.302059e-01 1.702093e+00 5.019755e-01 8.389010e-01 -7.050309e-01 4.552971e-01 1.044000e+00 -1.277423e+00 -7.615726e-01 -7.505672e-01 1.117455e-01 2.141346e+00 2.779959e-02 7.702246e-01 1.913662e-01 -1.563020e+00 -1.397420e+00 4.222240e-01 -2.527542e-01 -1.233105e+00 -1.724885e+00 4.297790e-01 5.718667e-01 -1.401548e+00 6.725103e-02 9.440952e-02 1.924820e-01 3.757987e-01 4.109593e-01 -1.636548e+00 1.136046e+00 1.274090e+00 1.710213e-01 -1.948283e+00 8.565886e-02 1.823587e-01 5.192411e-01 -1.208160e+00 2.993960e-01 -5.097872e-02 3.228890e-01 -1.260480e+00 -2.395268e-01 -2.369721e-01 -2.156245e-01 1.013830e+00 -1.968528e+00 1.412515e+00 1.515922e+00 -5.378954e-01 -7.006702e-02 -1.804712e+00 -5.059468e-02 8.296999e-01 4.422660e-01 -1.042193e+00 5.706092e-01 -6.802966e-01 -4.727854e-01 1.601883e+00 6.615870e-01 -4.319568e-02 8.746929e-02 -6.148089e-01 4.244695e-02 -1.340929e-01 3.256988e-01 -6.709970e-01 -1.853199e-01 5.397796e-01 -1.625362e+00 2.442451e-02 -7.749309e-01 -4.688856e-01 -3.317850e-01 7.925875e-01 1.998510e-01 1.808853e-02 -5.093421e-01 8.329145e-01 -5.823742e-01 2.366453e+00 -1.216589e+00 -2.048420e+00 2.090642e+00 -4.259263e-01 -1.460707e+00 -7.349576e-01 -7.064320e-01 -9.636579e-02 4.383175e-01 7.240340e-01 2.697811e+00 -1.717921e+00 1.654492e+00 -4.299948e-01 -1.206603e+00 -1.167956e+00 9.877726e-03 6.578292e-01 8.999735e-01 -1.797318e-01 2.006739e-01 -1.688339e+00 -7.668732e-02 -5.770212e-01 2.725102e-01 2.367198e-01 5.178679e-01 1.159088e+00 -1.155863e+00 8.374316e-01 -1.076331e+00 -4.370362e-01 -1.369273e+00 2.348626e-01 9.822816e-02 -9.122226e-01 3.784416e-03 -9.783686e-01 3.651059e-01 4.268656e-01 -1.078644e+00 8.005738e-02 -1.897438e+00 -4.167618e-01 -9.711335e-01 2.539930e-01 1.019444e+00 -1.964143e+00 -1.564539e+00 -2.463597e-01 -4.443521e-01 8.357324e-01 -5.424849e-01 7.393174e-01 -7.628765e-01 2.518568e-01 6.587521e-01 9.476027e-01 1.429354e+00 -1.744092e+00 1.650600e+00 4.254250e-01 -1.606388e-01 -1.063141e+00 -7.807763e-01 -9.747901e-01 4.022425e-01 -3.007350e-01 6.138584e-01 -5.123334e-01 1.411107e-01 -3.639132e-01 -1.833570e-02 7.150125e-01 -1.123520e-01 1.481142e+00 2.301160e-02 1.025854e-01 4.864057e-01 -1.674169e+00 -4.555256e-02 1.300245e+00 -1.461930e+00 -7.242070e-01 -5.030964e-01 8.885813e-01 -1.223410e+00 -7.295266e-01 -3.534732e-01 -2.503724e-01 -3.091167e-01 -1.814216e-01 -5.124375e-02 3.498263e-01 1.842651e+00 1.114226e+00 1.123888e+00 -3.596069e-01 -7.753322e-01 2.962080e-01 -1.601782e-01 -6.020665e-01 -1.234137e+00 -5.130374e-01 -4.292152e-01 9.927547e-01 6.392821e-01 7.638019e-01 6.778757e-01 -7.647933e-01 1.542279e+00 -7.566525e-02 6.281505e-01 2.614547e-01 -2.251758e+00 1.979853e+00 -3.575235e-01 -7.945038e-01 -1.167026e+00 -7.007359e-01 4.070142e-02 6.992556e-01 -1.321182e+00 -3.765866e-01 -3.526676e-01 -5.266022e-02 -3.286555e-01 -2.378612e-01 -1.772101e-01 1.101196e-01 6.740746e-01 4.201383e-01 -1.066698e+00 7.089738e-01 7.750658e-01 1.203707e+00 -9.990221e-01 -2.344001e-01 -4.674294e-01 1.208486e+00 -2.777036e-01 -1.036706e+00 2.497757e-01 1.132107e+00 1.002412e-01 3.654422e+00 1.351515e+00 -3.747653e-02 -1.206356e+00 1.796030e-02 9.593892e-01 2.311563e+00 -6.037308e-01 1.110142e+00 -2.040110e-01 -7.777042e-01 -6.688604e-01 2.324519e-01 -3.882686e-01 2.237546e-01 -7.639840e-01 6.252389e-01 9.831707e-02 -6.862345e-01 2.815795e-01 -4.630459e-01 -1.467137e+00 -7.538332e-01 4.610625e-01 3.612157e-03 3.893158e-01 8.364368e-01 1.251390e+00 -6.877853e-01 1.793466e+00 3.302412e-01 -1.095061e-01 -1.852580e-01 -4.736272e-01 -2.724689e+00 8.460111e-01 7.543812e-01 1.340204e+00 9.912538e-01 -3.942095e-01 -5.796886e-01 1.607999e-01 -1.287716e+00 -8.851110e-01 -5.667136e-04 1.008939e+00 -5.995699e-01 1.745465e+00 4.355345e-01 1.969014e+00 -2.003910e-01 8.296566e-01 -1.248286e+00 2.011200e-01 1.491804e+00 -1.430234e+00 -1.523752e+00 -1.436819e-01 1.133749e+00 1.456844e+00 1.241390e+00 -2.018788e+00 5.586276e-01 7.169659e-01 3.280571e-01 -6.215506e-01 1.015362e+00 -1.175958e+00 -2.322774e+00 6.846887e-01 -1.355185e+00 -6.529374e-01 2.460774e+00 -1.464286e+00 -2.824824e-01 -8.192043e-01 -1.514547e-01 -1.312071e+00 -2.795749e-01 -1.126477e+00 -1.280321e+00 -1.153436e+00 3.142422e+00 -4.459580e-01 -1.115129e+00 5.643619e-01 -2.623692e-01 -6.922620e-01 -1.395569e+00 -4.551907e-01 3.486824e-01 -2.252560e-01 -1.800564e-01 3.783530e-01 -2.114393e-01 -5.196515e-01 -9.635826e-01 4.921050e-01 -1.284515e+00 1.773611e-01 1.143455e+00 -5.335218e-01 -8.906812e-01 -2.155172e+00 -2.573296e-01 1.165787e+00 -5.743625e-01 8.136377e-01 -7.162699e-01 -1.642156e+00 1.989351e+00 -1.680949e-01 -1.111565e+00 2.208068e-01 6.355550e-01 7.465049e-01 -1.004233e+00 6.188404e-01 1.867115e+00 8.712154e-02 -7.812826e-01 4.144353e-01 -1.281189e+00 5.797149e-01 -2.544160e-01 1.389095e+00 -1.668995e+00 -3.273659e-01 -3.211391e-01 4.874523e-01 1.739654e-01 2.317232e-01 -2.150803e+00 -4.254104e-01 -3.381062e-01 -6.147609e-01 1.189250e+00 7.946604e-01 1.878142e+00 -1.237854e+00 7.450947e-01 -1.247666e+00 -2.322152e+00 -2.897363e-01 -1.679706e+00 4.427647e-01 -3.570521e-01 6.733607e-01 -1.605247e+00 4.414411e-01 1.426583e+00 -1.727613e+00 -7.429695e-02 -1.656571e+00 -1.738497e+00 -9.025492e-01 1.040505e-01 -2.773494e-01 1.590045e-01 2.998470e-01 -6.221909e-01 -2.334733e+00 -8.318651e-01 -7.465582e-01 1.167796e+00 -1.556424e+00 -1.218369e-01 -1.576477e+00 -2.302508e-01 5.670709e-01 -1.584627e-01 3.975470e-01 -1.271410e+00 -1.320003e+00 -9.257933e-01 -1.533702e+00 9.407664e-01 6.270038e-01 3.095240e-01 -4.218962e-01 9.929080e-03 8.149161e-01 -1.023867e+00 -2.404711e-01 1.136789e+00 5.869724e-01 -6.892702e-01 -3.532778e-01 -1.192859e+00 3.972577e-01 8.277004e-01 7.901499e-01 4.381067e-01 -4.050990e-01 -1.041183e+00 7.312131e-01 -2.293213e+00 -2.276447e-01 1.930241e-01 1.128612e-02 -9.088715e-01 3.136338e-01 -6.188247e-01 -1.120778e+00 -4.605683e-01 -1.749943e-01 1.679939e+00 -1.996762e+00 -4.198469e-01 1.389454e+00 -1.552599e-02 4.385250e-01 -7.970320e-01 8.099595e-01 -4.123706e-01 1.034607e+00 3.573234e-01 1.848969e+00 3.447740e-01 3.989504e-01 7.104239e-02 1.344969e+00 -7.729543e-01 1.334267e+00 -4.594913e-01 -5.388394e-02 5.541672e-01 9.686613e-01 -1.056391e+00 -8.783407e-01 -9.007299e-02 5.957453e-01 5.294151e-01 -8.446218e-01 1.477563e+00 -4.576033e-01 -1.051264e+00 8.479547e-01 -3.982307e-01 -2.276368e-01 -1.321053e+00 8.208122e-01 -5.497187e-01 -1.202984e+00 3.871402e-01 9.639521e-01 -8.360570e-01 -5.664616e-01 1.701556e+00 1.012795e-01 -5.631452e-01 -1.368417e+00 -1.185770e-01 4.485505e-01 -3.567767e-01 -1.800776e+00 2.288790e-01 1.659830e+00 7.237979e-01 1.614483e+00 4.407999e-01 -2.888830e-01 -1.053507e+00 -1.170843e-01 1.281645e+00 -9.286707e-01 -1.590218e+00 -8.083879e-01 -1.951390e-01 -3.774297e-02 -4.663415e-01 -1.415551e+00 -4.080413e-01 1.540092e+00 -7.715693e-01 -1.495426e+00 5.652329e-01 -1.934142e-01 -8.173467e-01 -8.776975e-01 -1.071750e-01 -7.653147e-01 1.592982e-01 -4.414846e-01 -1.905407e+00 6.690409e-01 3.948905e-01 -1.301512e+00 1.251215e+00 2.007097e-01 -1.301160e+00 7.052479e-01 5.380887e-01 -4.387138e-01 -1.044934e+00 -4.883566e-01 -4.367361e-01 4.373582e-01 -9.518777e-01 1.428326e-01 1.944433e-01 6.329756e-01 -8.915074e-01 3.433151e-01 1.571059e+00 -4.842364e-01 8.201565e-01 -1.833443e+00 -2.077165e-02 5.395452e-01 8.728463e-01 -1.837513e+00 -6.815237e-03 -1.109761e+00 1.495034e-01 6.000419e-01 6.995552e-01 2.796063e-01 3.077672e-01 -4.368229e-01 -1.242933e+00 1.224081e+00 -1.606539e+00 2.314906e-01 -2.572530e-01 -1.163693e+00 7.989300e-01 5.616964e-01 -8.413406e-01 5.688159e-01 -1.630912e+00 -1.354198e+00 -1.195186e+00 -6.487954e-02 -2.479457e-01 -1.126899e+00 3.386275e-01 1.577369e-01 6.219565e-01 -1.036556e+00 1.009213e+00 1.137893e+00 -6.731165e-01 -7.716714e-01 -1.026554e+00 -1.034854e+00 -1.342222e+00 -2.309885e-03 -2.037553e-01 4.151007e-01 -6.027461e-01 -5.319726e-01 3.860922e-01 -8.148535e-01 5.723650e-01 -1.797876e+00 5.681170e-01 -1.525413e+00 -5.997119e-01 -1.987684e+00 -1.246512e+00 -8.081062e-01 -4.612555e-01 1.370724e+00 -8.151192e-01 5.090136e-01 2.831075e-01 -9.016621e-02 -3.311555e-01 4.296762e-01 -1.542345e-01 -6.877167e-01 3.774597e-01 1.956698e+00 -1.321729e+00 -1.258981e+00 4.282951e-02 -2.664637e-01 -2.053365e+00 -8.689174e-01 4.986385e-02 -2.260279e-02 2.021586e-01 -1.390556e-01 1.171565e+00 -1.795073e+00 -2.501544e-01 3.732056e-02 7.515276e-01 1.546333e+00 -6.594259e-01 6.539151e-01 6.105142e-01 -1.559522e+00 -8.226610e-01 -4.985395e-01 -3.124459e-02 3.595834e-02 8.479062e-02 -3.211471e+00 3.584942e-01 1.476415e+00 9.729057e-01 -8.543072e-01 2.741100e-01 -1.476899e+00 -1.543582e+00 -9.934130e-01 9.632730e-01 -1.709474e+00 5.466227e-01 6.634264e-01 -1.645015e-01 1.236533e+00 -1.855368e-01 6.493133e-01 1.094187e+00 4.463660e-01 -7.636935e-01 2.209399e-01 -1.683138e+00 -3.162693e-01 -9.296019e-01 2.275158e-01 8.093292e-01 -2.185762e+00 -1.346725e+00 5.251414e-01 -8.721085e-02 1.749507e-01 -6.127044e-01 -4.482679e-01 2.188847e-02 -8.716696e-01 1.060012e+00 1.261661e+00 1.605552e+00 -5.189626e-01 1.260247e+00 -4.784200e-01 -6.477880e-02 1.399174e+00 1.386518e+00 3.301147e-01 8.219473e-01 -8.210922e-01 -1.054312e+00 -4.845447e-01 2.104541e-01 -3.277900e-01 -4.062592e-02 -1.880438e+00 -1.012997e+00 3.552274e-01 -2.206270e-01 -1.283780e+00 6.229321e-01 2.014026e+00 -1.154286e+00 1.222702e-02 2.706544e-02 -1.499325e+00 -1.489518e+00 4.582493e-01 7.926088e-01 -2.831163e-01 -1.466124e-01 6.910768e-01 2.500576e-01 6.141933e-01 1.272179e+00 -1.148248e+00 9.416419e-01 1.106499e-01 -4.156406e-01 -1.608889e-01 1.165683e+00 7.433623e-01 -2.086223e-01 -7.386519e-02 2.325330e-01 2.200114e-01 2.550326e-01 -1.429573e-01 -8.317159e-01 -1.447811e+00 -1.477205e+00 6.110554e-01 2.143558e-01 -1.980720e+00 -1.290219e+00 -1.283131e+00 -5.193578e-01 -1.820871e-02 5.853157e-01 2.618102e+00 -8.236345e-01 -8.811143e-01 -1.244279e+00 -1.297353e+00 -7.684786e-01 2.353597e-01 -1.486115e+00 -1.383084e+00 -2.351601e-01 -1.604236e+00 -1.856307e+00 -1.397132e-01 1.511226e+00 1.043771e+00 2.615906e-01 6.138766e-01 -6.103354e-01 1.995900e+00 -7.711074e-01 4.611246e-01 -1.166168e+00 1.850816e+00 -3.581584e-02 1.397800e+00 -2.518828e+00 -5.039600e-01 -1.156122e+00 1.530291e+00 -4.200990e-01 1.373000e+00 -2.346350e-01 3.572194e-01 -1.768704e+00 -1.033617e+00 2.329155e+00 9.796132e-01 -2.776068e-01 -1.508850e+00 -1.793212e-01 -9.127995e-01 -4.584416e-01 2.924854e-01 2.864479e-02 6.118111e-02 6.326968e-01 1.234437e+00 7.266426e-01 7.987679e-01 -1.673554e+00 3.438102e-01 1.101537e-01 2.047492e-01 -3.071770e-01 -1.552160e-03 -2.321635e-02 -2.551621e+00 -1.630234e+00 -7.428801e-01 8.651244e-01 -1.232511e+00 7.376498e-01 -3.631639e-01 -1.299096e+00 -1.113691e+00 -8.093014e-01 -2.142082e-01 -1.565960e+00 1.212768e+00 8.180092e-01 -4.489949e-01 9.067033e-01 -1.317527e-01 -2.680535e-01 3.292817e-01 -2.056458e+00 2.359634e+00 1.265054e+00 -1.278247e+00 -5.558413e-01 7.880905e-01 -1.528248e-01 -6.884708e-01 3.562825e-01 1.148598e-02 8.420309e-01 -1.003649e+00 -4.850225e-01 -1.257249e+00 -1.145318e+00 4.104401e-01 2.430655e+00 -1.901112e+00 -1.995269e+00 1.770898e+00 1.554003e-01 4.235592e-01 3.917899e-01 -3.079133e-01 -1.414675e+00 1.021855e-01 -7.663416e-02 8.067012e-01 -1.016287e-01 -1.905767e+00 6.700775e-01 -1.509707e+00 -4.990527e-01 -7.225658e-01 -9.513192e-01 2.385973e-01 -2.836342e-01 1.077625e+00 -1.072201e+00 1.708879e+00 -6.536994e-01 1.159627e+00 -3.386248e-01 1.200964e+00 -2.894659e-01 -2.041792e+00 1.416726e+00 -1.016991e-01 9.112238e-01 5.792054e-01 -7.007056e-01 -1.242496e+00 -8.303199e-01 -1.658863e+00 -6.608634e-01 2.016193e+00 7.101695e-01 1.115688e+00 6.300519e-01 7.821467e-01 8.728481e-01 2.597258e-01 6.344708e-01 1.108172e-01 1.034299e+00 9.391115e-01 -1.046804e+00 2.904635e-01 -4.435901e-01 1.748215e+00 2.680773e-01 1.813219e+00 -6.625858e-01 -9.594061e-01 1.743948e+00 -1.752575e+00 -1.363369e-01 -4.901629e-01 3.370206e-01 -6.093705e-01 -1.011867e-02 -3.147721e-01 7.264140e-01 -1.396800e+00 2.896637e-01 -1.042078e+00 -8.544101e-01 9.009472e-01 3.112007e-01 -7.239127e-01 -7.090419e-01 2.342769e-01 -9.649262e-01 -3.835326e-01 -1.344707e+00 8.116790e-01 6.239939e-01 1.521458e+00 -2.235667e+00 -7.547565e-01 -2.637288e-01 -2.540511e-01 -2.458077e+00 -3.137834e+00 7.839087e-02 -4.919187e-01 -1.948546e+00 6.009321e-02 1.030255e+00 9.721927e-02 3.731644e-01 -1.125893e+00 -7.076010e-02 1.043280e+00 4.780743e-01 3.779806e-01 5.086829e-01 3.674207e-01 -8.140844e-01 7.322686e-01 1.117192e+00 -7.071951e-01 7.605054e-01 -4.769312e-01 -3.754955e-01 2.390493e+00 6.071182e-01 -1.256194e-01 8.667495e-01 -2.422723e-01 -4.933894e-01 -1.346275e+00 -3.031014e-01 -6.604973e-01 -5.205537e-01 4.665157e-01 4.659301e-03 1.888371e-01 1.447189e+00 -7.098216e-01 1.161518e-01 -6.110849e-01 -6.905013e-01 7.188379e-01 7.322909e-01 -8.158250e-02 -1.912974e-02 1.399514e+00 1.130503e+00 -1.201898e-01 2.603799e-03 -3.650189e-01 -2.480196e+00
-1.355710e+00 8.597241e-01 1.797329e+00 -2.104592e+00 -1.533474e+00 2.103710e-01 8.239328e-01 -1.166039e+00 2.312587e+00 -8.726579e-01 -5.360800e-01 1.823188e+00 2.255544e-01 2.562863e-01 5.251253e-02 -4.441312e-01 -1.089296e+00 3.237093e-02 1.341050e-01 -1.305422e+00 -3.256019e-01 -1.672834e+00 1.176908e+00 -1.442374e+00 2.630444e-02 3.347797e-01 2.064914e+00 -1.424541e+00 -4.100105e-01 -1.904148e+00 -4.730869e-01 7.418152e-01 4.550027e-01 -7.997519e-01 -6.514024e-01 7.701867e-01 -5.472714e-01 -2.728822e-01 1.588976e+00 -8.373335e-01 -5.328400e-01 7.726690e-01 -5.546408e-01 7.820572e-01 -8.341061e-01 -8.073970e-01 1.705462e-01 -1.749313e+00 -8.992801e-01 -8.880173e-01 -2.507050e-02 -1.646120e-01 2.261861e+00 -5.376668e-01 -1.522590e+00 -1.907445e+00 -5.578346e-01 -5.736708e-01 -2.594702e-01 1.182701e+00 1.068399e+00 5.723446e-01 1.186496e-01 1.355718e-01 -1.045872e+00 -1.174208e+00 -8.700162e-01 8.221908e-01 1.144108e-01 -3.210101e-01 -1.662814e+00 -6.898624e-01 1.333147e-01 6.861401e-01 6.812260e-03 2.958233e-01 -4.011657e-01 7.121082e-03 3.531200e-01 1.509567e+00 -1.116668e+00 2.677728e-01 6.454006e-01 -1.422554e+00 -1.439955e-01 -1.546466e-01 -1.071452e+00 -6.093076e-01 8.201620e-01 1.175873e+00 -1.002091e+00 1.890962e+00 -6.601962e-01 3.280369e-01 -1.798536e+00 1.610510e+00 -4.715922e-01 1.868152e+00 4.845372e-01 -4.131786e-01 -5.962118e-02 1.073093e+00 5.783189e-01 3.492108e-01 -2.792327e-01 -2.068546e+00 -3.079480e-01 1.212444e+00 -4.466340e-02 9.035215e-01 -2.876476e+00 8.840196e-01 -1.031101e+00 -2.782824e-01 1.207696e+00 -1.709579e+00 8.744697e-01 1.104237e+00 -5.640486e-01 -5.794303e-01 -6.826614e-02 -1.021313e+00 -7.908642e-01 2.084973e-01 -9.774667e-01 6.511424e-01 1.266105e+00 -9.003955e-01 -1.221002e+00 1.254157e+00 6.345540e-01 1.166649e+00 -1.080239e+00 -7.888665e-01 -1.978463e+00 -1.324444e+00 8.616073e-01 3.234189e-01 -1.621241e+00 -3.273575e-01 -3.707407e-01 1.275490e-02 -1.149715e+00 1.182383e+00 -4.480800e-01 -9.592519e-01 -9.945860e-01 5.364753e-01 -3.436631e-01 -1.131585e+00 6.369147e-01 -1.066878e+00 2.220634e-01 -6.556454e-01 -2.695580e-01 1.048953e+00 4.665126e-01 5.154332e-01 -1.814974e-01 4.735921e-01 -2.054500e-01 -6.434990e-01 2.763563e+00 -4.736496e-02 3.770283e-01 -4.668161e-02 -1.532272e-01 -2.207823e-01 -1.074333e+00 -1.158486e+00 -8.989781e-01 1.136162e+00 -7.878191e-01 -5.155989e-02 -6.544710e-02 2.909841e-01 1.024167e+00 -4.867971e-02 -1.743281e+00 3.056159e-02 -7.548525e-01 -2.392652e+00 -2.563993e+00 -5.786773e-01 1.805988e+00 1.931877e+00 -2.158892e+00 -2.021449e-01 -3.494755e-01 -2.620673e+00 -1.631605e+00 -1.077865e+00 2.374999e-01 -1.106062e+00 -1.329855e+00 -9.817812e-01 5.153112e-02 1.224893e-02 -9.093720e-02 1.081442e-01 1.348703e-01 4.584872e-01 8.046656e-01 -1.197447e+00 5.678349e-01 6.348752e-01 -1.406998e+00 1.248429e+00 -1.598512e+00 9.264050e-01 -2.021961e-03 1.393094e-01 -9.844994e-01 -1.153484e+00 3.353377e-01 -7.086904e-01 -7.353535e-01 3.801585e-01 -7.528841e-01 -1.781082e+00 8.209774e-01 1.177268e+00 8.308012e-01 -4.448990e-01 -1.426503e+00 -5.732606e-01 7.396116e-01 -1.494106e+00 6.213305e-01 -2.901906e-01 2.189098e+00 1.185140e+00 1.432162e+00 1.166088e+00 3.202547e-01 -1.782156e+00 8.323411e-01 3.992567e-02 -1.166771e+00 2.599369e-01 -1.684852e+00 1.362046e+00 -5.207000e-01 -1.197920e-01 -2.387379e-01 -7.907673e-01 -3.771177e-01 -5.145638e-01 -8.878125e-01 4.776663e-01 -7.188103e-01 4.937061e-01 1.429588e-01 -8.451583e-01 3.261780e-01 -7.747264e-01 2.515406e-01 9.994007e-01 2.805521e-01 -8.853218e-01 1.694032e+00 8.443710e-01 1.682636e+00 -1.422260e+00 -1.329614e+00 9.420027e-01 -4.484778e-01 2.078125e-01 -2.034166e+00 4.467682e-01 -1.100213e+00 1.361806e+00 1.263781e+00 1.558433e+00 9.306435e-01 9.806091e-02 1.044398e+00 -4.637173e-01 -1.388358e-01 1.854554e-02 -2.265060e-01 -1.395717e+00 -2.840693e+00 7.426175e-01 -8.788465e-01 -2.113735e-01 -2.652780e-01 -1.887184e+00 -3.654008e-01 -1.639912e+00 -9.523002e-03 -1.026359e+00 -6.871236e-02 9.701269e-01 -1.838090e+00 3.735457e-01 -3.529841e-01 3.754653e+00 -4.879653e-01 -1.012897e+00 6.583442e-01 8.010234e-01 8.929513e-01 -1.346883e+00 -7.076557e-01 1.109611e+00 -1.179759e-01 5.328496e-01 -3.777903e-01 -5.831441e-02 -8.503172e-02 5.244354e-01 -5.671347e-01 1.711909e-02 3.326724e-01 6.184957e-01 -1.320060e+00 7.188485e-01 2.920866e-01 4.308806e-02 -5.588438e-01 4.697393e-01 8.908451e-01 -1.911134e-01 1.062939e+00 -7.264660e-01 -2.074790e+00 5.767909e-01 3.502772e-01 -1.515612e+00 -7.865544e-01 -1.413946e+00 2.243326e-01 2.675283e-03 -2.977379e-01 1.015101e+00 -4.896905e-01 2.906632e-01 9.222700e-01 -3.806600e-01 1.834829e+00 7.464089e-02 -1.388843e-01 -2.363636e+00 -9.381393e-01 2.085175e+00 8.523473e-01 4.202355e-01 -4.057583e-01 1.611537e+00 1.990624e+00 -3.895509e-01 -3.692981e-01 3.677488e-01 1.361246e-01 -7.923327e-01 -2.290135e-01 8.249328e-01 -5.461533e-01 6.244965e-01 7.854794e-01 -1.236928e+00 -1.775441e+00 1.199254e+00 -1.021624e+00 1.718387e+00 2.150902e-02 -1.995725e-01 -6.309107e-01 3.564626e-01 2.624287e+00 -1.188271e+00 -6.452902e-02 1.518854e+00 -1.774302e+00 3.749361e-01 6.702222e-01 -1.881505e+00 -7.787310e-01 -2.261550e+00 7.809686e-01 -1.806789e+00 5.689498e-01 -7.519974e-01 1.073641e-01 7.221826e-01 3.573988e-01 4.405149e-01 9.731494e-01 -2.591617e+00 1.091016e+00 -1.018258e+00 4.301918e-01 -4.273537e-01 2.534362e-03 7.953344e-01 1.025550e+00 2.041508e-01 -1.131505e+00 -3.314136e-01 -6.770968e-01 2.471970e+00 -7.207687e-01 4.060764e-01 7.419529e-01 1.245198e-01 6.839879e-01 -4.689619e-01 -9.031502e-01 -4.503641e-01 1.731537e+00 7.006157e-01 -4.961033e-01 -1.706695e+00 -2.761035e-01 -7.462422e-01 -1.285059e+00 -1.652605e-01 -7.861344e-01 -2.328462e+00 5.048718e-01 -3.871496e-01 2.077129e+00 8.615346e-02 5.054365e-01 3.488649e-02 -2.513535e-01 -8.656753e-01 -3.885169e-01 -4.047761e-02 1.910092e+00 -2.400762e-01 1.084403e+00 2.762040e-01 1.016477e+00 8.849275e-01 8.319268e-03 3.060504e-01 1.035275e+00 2.636576e-01 -8.866810e-01 1.631021e+00 -6.952280e-01 7.922624e-01 1.406760e+00 5.890763e-01 5.222929e-01 4.639523e-01 2.958050e-01 -1.596975e+00 1.056047e+00 -6.963766e-01 -1.071030e-01 1.079852e+00 -3.454867e-01 -4.812065e-01 4.053845e-01 1.793037e+00 -1.416897e+00 -3.567133e-01 1.672930e+00 3.090718e-01 3.533456e-01 4.811551e-01 -1.422314e+00 -6.693056e-02 3.240193e-01 -3.882458e-01 1.998895e-01 -2.243976e+00 3.370823e-01 2.041210e-01 4.995237e-01 7.487321e-01 -2.305126e+00 8.783178e-01 8.644159e-01 -4.404065e-01 3.666215e-01 9.242737e-01 -1.862300e+00 -1.467217e+00 -6.147517e-01 -5.030638e-01 -7.451324e-01 2.075246e-01 -6.036719e-01 -1.854861e+00 1.762092e+00 -2.480873e-01 -6.109896e-01 5.100399e-01 1.466796e+00 1.900646e-01 1.075060e+00 -1.263988e+00 7.784428e-01 -2.062866e-01 5.186166e-01 -6.879118e-01 3.616210e-02 -1.081797e+00 -1.105037e+00 -1.393536e+00 -4.634465e-01 3.977660e-01 2.834023e-02 -7.897397e-01 2.915740e-01 -2.446507e-01 -8.562788e-01 -6.295207e-01 1.396683e+00 1.071043e+00 9.103958e-01 1.157443e+00 -7.984184e-01 6.426982e-01 8.135782e-01 8.675995e-01 -3.790066e-01 -1.181096e+00 1.203796e+00 -1.325131e+00 -2.441420e+00 -5.574176e-02 6.234342e-01 1.712650e+00 -6.529622e-02 -8.310137e-01 -1.002321e-02 -1.039701e+00 -7.296054e-02 6.405295e-01 -2.183469e-01 4.249820e-01 7.241702e-01 7.740056e-01 -1.087518e+00 -1.535620e+00 -1.854919e+00 1.104308e+00 3.915775e-01 -1.172040e+00 2.389825e-02 1.596508e+00 -3.428132e-01 5.839607e-03 2.886775e-01 1.611131e+00 8.520896e-01 -1.146102e-01 -5.263601e-01 -7.277775e-02 -1.202497e+00 7.506974e-01 1.154540e+00 -9.134785e-03 1.551304e-01 -1.126669e-02 8.252326e-01 5.821818e-01 -1.156331e+00 4.193291e-01 -6.684002e-01 -1.839075e-01 3.684160e-02 4.575063e-01 -2.144958e+00 -6.482552e-01 6.363771e-01 1.860541e+00 1.711184e-01 1.840438e-01 -1.179677e+00 -4.415272e-01 -4.324870e-01 -6.958252e-01 1.256730e+00 -6.818565e-01 4.876949e-01 7.576652e-01 1.789078e+00 3.668428e-01 -3.695409e-01 -9.444021e-01 -8.752650e-01 -1.533522e+00 2.611029e+00 3.601060e-01 -6.234171e-01 -6.126790e-01 -4.354241e-01 8.455008e-01 9.894996e-01 -7.245660e-01 3.433314e-01 -4.092434e-01 8.631629e-01 2.854958e-01 -2.308716e+00 8.213980e-01 -3.725541e-02 -6.654584e-01 -1.049307e+00 1.603482e+00 -6.547722e-01 8.431362e-01 -4.789705e-01 3.470603e-01 1.036530e-01 -4.068341e-01 -2.784761e-01 -5.072591e-01 3.821696e-01 7.924735e-01 1.686461e+00 -1.010581e+00 4.437928e-01 1.172951e+00 -1.937156e+00 1.389929e+00 3.074892e-01 -6.541887e-01 3.857889e-01 1.328459e+00 -2.082877e+00 2.166951e+00 -8.958950e-01 -5.079038e-01 -5.508241e-01 7.828508e-01 -1.848483e-01 -6.369441e-02 -4.268695e-02 3.595339e-01 -4.620025e-01 -4.999892e-01 -3.258762e-01 -1.324921e+00 -8.411505e-01 3.408906e-01 -1.493935e+00 -7.845566e-01 -4.161642e-02 1.345340e+00 8.128205e-01 1.168933e+00 -1.028221e+00 -1.024739e+00 -8.173907e-01 8.631168e-01 -1.199411e-01 -1.215116e+00 5.564959e-01 1.375585e+00 -2.227020e+00 -2.562804e-01 -5.179562e-01 1.384443e+00 -1.933048e+00 -3.294917e-01 -2.142870e-01 -1.533241e+00 -1.627510e+00 -6.065099e-01 -1.108589e+00 1.249833e+00 1.272957e+00 8.162221e-01 1.755883e+00 -2.105326e+00 7.678842e-01 -9.492992e-01 -2.023538e+00 1.379523e+00 -1.494342e+00 8.676081e-01 -1.837078e+00 -1.876983e-01 -1.175351e+00 -1.267906e-01 -4.526476e-01 -2.574779e-01 -1.661111e+00 -3.026948e-01 1.406043e+00 -3.828935e-01 7.778949e-01 1.013982e+00 6.106625e-01 -1.372542e+00 1.802659e+00 -1.400996e-01 4.728545e-01 -2.975468e+00 4.826942e-01 3.619523e-01 -1.101739e+00 -9.967532e-01 -7.599719e-01 4.179391e-01 4.797761e-01 -3.005927e-01 -1.094723e+00 -6.210284e-01 5.405238e-02 -4.841141e-01 1.265040e-01 -2.181803e-01 -4.784485e-02 -5.406006e-01 -7.679534e-01 4.095345e-01 4.142640e-01 -2.448172e-01 -3.639935e-01 -5.176617e-01 4.912190e-01 -4.969135e-01 4.007205e-01 -2.804786e-01 1.031224e+00 6.457500e-02 -3.214588e-01 8.328108e-01 2.121051e+00 -9.494989e-01 -9.662381e-01 -5.853122e-01 2.353207e+00 -1.063413e+00 3.575974e-01 -2.278766e+00 2.605608e+00 1.387179e+00 -7.141065e-01 -5.869220e-01 -1.357491e-01 9.692581e-01 -6.002569e-01 2.909292e-01 -6.434080e-02 -5.714198e-01 2.181027e-01 -1.226008e+00 -8.356631e-01 1.179370e+00 -6.565222e-01 -1.985681e+00 -1.323621e+00 1.048256e+00 -6.477169e-02 1.005692e+00 -6.755709e-01 -7.553522e-02 3.527618e-01 1.035574e+00 -1.899343e+00 5.600595e-01 4.011369e-02 -1.901056e+00 3.840582e-01 2.071472e-01 -1.331694e+00 8.325763e-01 -3.182833e-01 6.290964e-01 -2.480710e-01 2.682043e-01 1.298916e+00 8.035612e-01 -8.698988e-01 9.621005e-01 -1.053257e+00 7.924833e-01 3.195959e-01 -1.493297e+00 3.487251e-01 -4.602630e-01 -9.421015e-01 1.718357e-02 -1.523451e-01 1.846903e+00 8.933347e-01 1.910702e+00 9.748836e-01 1.368055e+00 -2.427145e-01 8.523599e-01 1.012442e+00 -2.233977e+00 -7.406445e-01 2.107193e-01 2.756396e-01 -9.786383e-01 6.176510e-01 -3.840606e-01 1.923731e-01 -8.926231e-01 -6.833661e-01 3.507666e-02 7.865875e-01 -5.066049e-01 9.465819e-01 1.144444e+00 2.527925e-01 -2.006444e+00 8.729414e-01 1.690488e-01 7.263068e-01 8.325807e-01 4.507335e-01 7.598239e-01 5.073124e-01 9.103921e-01 -2.871553e+00 -1.794089e+00 -4.998204e-01 1.169669e+00 -6.895641e-02 -1.538129e+00 6.510302e-01 1.053004e+00 -1.751468e-01 8.748062e-01 -5.590169e-01 -1.065318e+00 4.877498e-01 1.143431e+00 -8.494594e-01 1.800511e+00 9.055507e-01 -2.111556e-01 -1.129300e+00 2.315254e+00 -8.838605e-01 2.066661e+00 1.862759e+00 -3.826732e-01 -1.152707e+00 1.417317e+00 -1.922605e+00 6.640471e-01 -7.439183e-02 -4.271413e-01 1.211125e+00 -3.145526e-01 1.346427e+00 -1.647320e+00 -1.073436e-01 -1.076436e+00 -4.735379e-01 -1.440192e+00 -6.124606e-02 3.771941e-01 -9.466268e-01 -2.636515e-01 -6.769826e-01 -1.041941e-02 6.718340e-01 1.018133e+00 3.955795e-01 5.933233e-01 9.912308e-02 8.253407e-01 9.921092e-01 -3.528118e-01 3.672670e-01 1.161910e+00 -1.267257e+00 -9.733841e-01 -1.056040e+00 -9.429357e-01 2.016663e+00 -1.221134e+00 -1.215984e+00 -9.555373e-01 1.966406e-02 -1.064253e+00 7.375049e-01 1.706336e+00 -1.068160e+00 1.100243e+00 3.661876e-01 3.192742e+00 -6.038298e-01 5.993069e-02 -9.075061e-01 4.133077e-01 -1.743252e+00 5.307688e-01 -8.747102e-03 2.991811e-01 1.156507e+00 1.098286e+00 -9.214483e-01 3.743341e-01 -1.214621e+00 3.485407e-01 3.923444e-01 -5.785812e-01 -8.544241e-01 3.074514e-01 7.604510e-01 -2.824271e-01 -1.042327e+00 -2.697772e-01 1.112308e+00 -2.668779e-01 -8.473842e-01 -1.025231e-01 8.467632e-01 8.799366e-01 -8.291961e-01 3.131342e-01 -1.189058e+00 3.022283e-01 8.376064e-01 -5.152196e-02 2.147203e-01 9.659069e-02 4.916615e-01 3.074179e-01 -9.527919e-02 -6.946044e-01 3.446218e-02 -9.975279e-01 2.395911e-01 1.758726e+00 -1.336488e-01 -1.087492e+00 9.273559e-01 -2.376699e-01 2.557989e-01 -7.698074e-01 2.724473e-01 1.012705e+00 -4.620931e-01 4.043760e-02 -1.966752e+00 -1.360221e+00 2.347334e+00 1.433053e+00 1.602998e-01 -1.276835e-02 1.601446e+00 1.350188e+00 1.223133e+00 2.788368e-01 1.754574e+00 -5.318957e-01 -2.855410e-01 2.635321e-01 1.727145e-01 1.298680e-01 -1.002543e-01 -9.201395e-01 1.354250e-01 1.357423e+00 7.341420e-01 7.509099e-01 -1.389789e+00 -5.811400e-01 -1.931537e+00 -2.599737e-02 -5.686761e-01 -1.575466e-01 9.899804e-02 1.126756e+00 5.875851e-01 8.063421e-01 -1.340414e+00 -1.284845e+00 9.962939e-02 4.348671e-01 8.432716e-01 -1.027590e+00 4.973806e-01 -2.170742e-01 -1.152910e+00 -1.373311e+00 -8.448655e-03 6.588254e-01 1.221650e-01 -1.584532e+00 3.988195e-02 -1.620182e-01 -2.519463e-01 -1.552789e+00 -9.992645e-01 -1.723136e+00 -5.248910e-01 -1.130101e+00 5.063062e-01 -2.070200e-01 4.952208e-01 1.308202e+00 5.329073e-01 -7.153199e-02
